<?xml version="1.0"?>
<opencv_storage>
<cascade>
  <stageType>BOOST</stageType>
  <featureType>LBP</featureType>
  <height>50</height>
  <width>50</width>
  <stageParams>
    <boostType>GAB</boostType>
    <minHitRate>9.9900001287460327e-01</minHitRate>
    <maxFalseAlarm>5.0000000000000000e-01</maxFalseAlarm>
    <weightTrimRate>9.4999999999999996e-01</weightTrimRate>
    <maxDepth>1</maxDepth>
    <maxWeakCount>100</maxWeakCount></stageParams>
  <featureParams>
    <maxCatCount>256</maxCatCount>
    <featSize>1</featSize></featureParams>
  <stageNum>19</stageNum>
  <stages>
    <!-- stage 0 -->
    <_>
      <maxWeakCount>5</maxWeakCount>
      <stageThreshold>-2.0496830940246582e+00</stageThreshold>
      <weakClassifiers>
        <_>
          <internalNodes>
            0 -1 107 -8529700 -44982208 -2117742084 -44573219 -610206786
            -359886639 428776959 -268436485</internalNodes>
          <leafValues>
            -7.8503185510635376e-01 5.1881718635559082e-01</leafValues></_>
        <_>
          <internalNodes>
            0 -1 7 -143655441 -146288181 1359565231 1944559069
            -1167331169 1416594682 -1794384945 1631833551</internalNodes>
          <leafValues>
            -7.6248770952224731e-01 5.6886243820190430e-01</leafValues></_>
        <_>
          <internalNodes>
            0 -1 69 488833345 958404752 134779217 936940531 -1465144839
            -1430724472 -1146569729 -20971777</internalNodes>
          <leafValues>
            -6.5350568294525146e-01 4.7687962651252747e-01</leafValues></_>
        <_>
          <internalNodes>
            0 -1 84 -25112432 -645011247 -653241861 264106439
            -1199384360 -1697981752 61431726 -859832578</internalNodes>
          <leafValues>
            -6.4825874567031860e-01 4.7315543889999390e-01</leafValues></_>
        <_>
          <internalNodes>
            0 -1 45 2147483515 -734454521 2130444031 280919486
            -1631634641 -723530465 2118107135 -1846020113</internalNodes>
          <leafValues>
            -5.3174924850463867e-01 5.8781093358993530e-01</leafValues></_></weakClassifiers></_>
    <!-- stage 1 -->
    <_>
      <maxWeakCount>6</maxWeakCount>
      <stageThreshold>-1.6998960971832275e+00</stageThreshold>
      <weakClassifiers>
        <_>
          <internalNodes>
            0 -1 34 -9729 -250258433 -69894657 -33554465 -88082177
            -1334117649 -1025 -35913729</internalNodes>
          <leafValues>
            -6.4506483078002930e-01 7.4772953987121582e-01</leafValues></_>
        <_>
          <internalNodes>
            0 -1 76 268489208 1360064979 160551133 1563547639 706265278
            -1087782723 672719295 -1666581558</internalNodes>
          <leafValues>
            -7.2510278224945068e-01 4.0326678752899170e-01</leafValues></_>
        <_>
          <internalNodes>
            0 -1 87 -541328461 1109442849 1075662965 -932654240
            1275059030 -359998853 -300680581 -295698561</internalNodes>
          <leafValues>
            -5.7390201091766357e-01 4.6883732080459595e-01</leafValues></_>
        <_>
          <internalNodes>
            0 -1 109 1368440572 -75902892 -736700969 -1618994800
            -392631106 -23551857 -1995665669 -1883338564</internalNodes>
          <leafValues>
            -6.4690554141998291e-01 4.0985509753227234e-01</leafValues></_>
        <_>
          <internalNodes>
            0 -1 63 -426532134 463067416 303181834 1092556269 2031631240
            286064648 1426603002 1535868923</internalNodes>
          <leafValues>
            -5.7291603088378906e-01 4.5904794335365295e-01</leafValues></_>
        <_>
          <internalNodes>
            0 -1 59 1057624273 421449921 584700371 248485087 -1718635221
            -1719009048 983513757 -4204049</internalNodes>
          <leafValues>
            -6.0098141431808472e-01 4.2125576734542847e-01</leafValues></_></weakClassifiers></_>
    <!-- stage 2 -->
    <_>
      <maxWeakCount>7</maxWeakCount>
      <stageThreshold>-1.4689002037048340e+00</stageThreshold>
      <weakClassifiers>
        <_>
          <internalNodes>
            0 -1 21 -536879105 -175144513 -641089025 -35679265
            -565453025 -257165057 -611728481 -234885121</internalNodes>
          <leafValues>
            -6.8521928787231445e-01 5.1204353570938110e-01</leafValues></_>
        <_>
          <internalNodes>
            0 -1 85 -143630861 -1122905743 489029111 -49194159
            -1945573126 -6315381 -939465987 -827850054</internalNodes>
          <leafValues>
            -5.5735808610916138e-01 4.7142562270164490e-01</leafValues></_>
        <_>
          <internalNodes>
            0 -1 97 958345331 50803210 1481413290 538180234 -1205929797
            -209022912 -108203073 -1279543557</internalNodes>
          <leafValues>
            -6.7895275354385376e-01 3.6945074796676636e-01</leafValues></_>
        <_>
          <internalNodes>
            0 -1 40 -619866772 -670374968 1292360461 1377779635
            -273708786 -82870269 188992282 990903295</internalNodes>
          <leafValues>
            -6.6409420967102051e-01 3.6754620075225830e-01</leafValues></_>
        <_>
          <internalNodes>
            0 -1 86 -111175494 393651930 1441922 810881416 1897500810
            67846146 864911550 1935655070</internalNodes>
          <leafValues>
            -5.9480232000350952e-01 4.1373348236083984e-01</leafValues></_>
        <_>
          <internalNodes>
            0 -1 65 464549233 1603534976 491868633 1301567767 688468923
            -270907264 428382335 472720879</internalNodes>
          <leafValues>
            -6.9479930400848389e-01 3.5336881875991821e-01</leafValues></_>
        <_>
          <internalNodes>
            0 -1 105 1830225066 -1224130424 1191252172 -1848622754
            914399466 2047135952 1073795567 -263201</internalNodes>
          <leafValues>
            -6.6164177656173706e-01 3.4938645362854004e-01</leafValues></_></weakClassifiers></_>
    <!-- stage 3 -->
    <_>
      <maxWeakCount>8</maxWeakCount>
      <stageThreshold>-1.6860504150390625e+00</stageThreshold>
      <weakClassifiers>
        <_>
          <internalNodes>
            0 -1 2 -538969097 -27271401 -1824434857 -44835501 -73684741
            -91539057 -79176381 -8914345</internalNodes>
          <leafValues>
            -6.7519545555114746e-01 5.9021919965744019e-01</leafValues></_>
        <_>
          <internalNodes>
            0 -1 91 -199108621 -147783689 -235406863 -532493 -1527388929
            -4718601 -453706507 -843919116</internalNodes>
          <leafValues>
            -4.7408249974250793e-01 5.3105711936950684e-01</leafValues></_>
        <_>
          <internalNodes>
            0 -1 94 -94382249 134727110 1149687310 12212190 -364140438
            -139492567 -556864649 -360710369</internalNodes>
          <leafValues>
            -6.2566977739334106e-01 3.8477414846420288e-01</leafValues></_>
        <_>
          <internalNodes>
            0 -1 98 -1086740292 1415968896 273786076 -1076012067
            -1278059585 -17034832 -2041963777 -20972545</internalNodes>
          <leafValues>
            -6.1415064334869385e-01 3.7334856390953064e-01</leafValues></_>
        <_>
          <internalNodes>
            0 -1 19 -45549057 1550047386 -1068437385 593123679 33601345
            -142082033 1712453487 -82773445</internalNodes>
          <leafValues>
            -4.6833249926567078e-01 4.7623309493064880e-01</leafValues></_>
        <_>
          <internalNodes>
            0 -1 121 -44330849 1564167868 981401696 155189242
            -1894326342 -1928004108 1585436116 -135858181</internalNodes>
          <leafValues>
            -4.6679094433784485e-01 4.8927170038223267e-01</leafValues></_>
        <_>
          <internalNodes>
            0 -1 90 -1892045368 -1917882334 42084286 2102293738
            -1390332008 -2012807149 539705149 410974655</internalNodes>
          <leafValues>
            -6.8097251653671265e-01 3.4528505802154541e-01</leafValues></_>
        <_>
          <internalNodes>
            0 -1 8 -337713669 -321920339 1942348844 1650970823
            -1252113076 -1845378647 1912852551 -1065889699</internalNodes>
          <leafValues>
            -5.9192824363708496e-01 3.8039532303810120e-01</leafValues></_></weakClassifiers></_>
    <!-- stage 4 -->
    <_>
      <maxWeakCount>7</maxWeakCount>
      <stageThreshold>-1.3754925727844238e+00</stageThreshold>
      <weakClassifiers>
        <_>
          <internalNodes>
            0 -1 34 -140518945 -237563393 -1693771393 -36185125
            -124790529 -258235398 -1685337089 -4994325</internalNodes>
          <leafValues>
            -6.2354552745819092e-01 5.7699441909790039e-01</leafValues></_>
        <_>
          <internalNodes>
            0 -1 4 -18092801 -388821673 -251138827 -469511145 1394761810
            -22547967 -83668989 -902310569</internalNodes>
          <leafValues>
            -6.1898732185363770e-01 3.8520622253417969e-01</leafValues></_>
        <_>
          <internalNodes>
            0 -1 108 886330869 901019027 -162531851 -1108880929
            -1735917324 -74544935 1021893869 -1397198604</internalNodes>
          <leafValues>
            -6.7700773477554321e-01 3.3564189076423645e-01</leafValues></_>
        <_>
          <internalNodes>
            0 -1 60 -1255088976 2060474561 315491453 1238440023
            503352492 2039485473 193825471 2132778943</internalNodes>
          <leafValues>
            -6.3294410705566406e-01 3.3603286743164062e-01</leafValues></_>
        <_>
          <internalNodes>
            0 -1 126 1608994203 1305155822 1158240287 211508370 59466494
            151134717 -1861586434 1442838271</internalNodes>
          <leafValues>
            -5.5646550655364990e-01 4.2690232396125793e-01</leafValues></_>
        <_>
          <internalNodes>
            0 -1 119 -15796304 -469204960 612881424 -598740908
            -1311511754 -2128363486 -1715225631 -926297091</internalNodes>
          <leafValues>
            -5.8714812994003296e-01 3.8447767496109009e-01</leafValues></_>
        <_>
          <internalNodes>
            0 -1 55 -540388880 85119698 1158791527 76502687 -16044492
            -2291080 2131595775 -1093677350</internalNodes>
          <leafValues>
            -6.0336482524871826e-01 3.7122982740402222e-01</leafValues></_></weakClassifiers></_>
    <!-- stage 5 -->
    <_>
      <maxWeakCount>7</maxWeakCount>
      <stageThreshold>-1.2966388463973999e+00</stageThreshold>
      <weakClassifiers>
        <_>
          <internalNodes>
            0 -1 20 -1387009 -136994369 -653075505 -137506377
            -1735674385 -70549162 1202650095 -167772161</internalNodes>
          <leafValues>
            -6.3341557979583740e-01 5.1332759857177734e-01</leafValues></_>
        <_>
          <internalNodes>
            0 -1 124 -1078200393 2142966896 935204213 1564364916
            -1355049473 -1628532610 938875389 -1415809</internalNodes>
          <leafValues>
            -4.5221829414367676e-01 4.8974424600601196e-01</leafValues></_>
        <_>
          <internalNodes>
            0 -1 135 -1358366796 -1367153500 1368604241 1366315220
            480422894 -913770292 1483004128 -1922204235</internalNodes>
          <leafValues>
            -6.6197407245635986e-01 3.2492986321449280e-01</leafValues></_>
        <_>
          <internalNodes>
            0 -1 11 -271072549 -95759669 -618052381 -1160617641
            2011283459 -1021226189 -113056681 -26820265</internalNodes>
          <leafValues>
            -5.2387887239456177e-01 4.0684217214584351e-01</leafValues></_>
        <_>
          <internalNodes>
            0 -1 122 -10974952 487129404 -2147471335 -1348496477
            283779464 26138634 1116270746 1304428495</internalNodes>
          <leafValues>
            -6.5217268466949463e-01 3.5396069288253784e-01</leafValues></_>
        <_>
          <internalNodes>
            0 -1 83 -1179610887 1537030622 -100658785 500650033
            -1295467557 1003062401 440703947 245933964</internalNodes>
          <leafValues>
            -5.9382700920104980e-01 3.5146498680114746e-01</leafValues></_>
        <_>
          <internalNodes>
            0 -1 62 -335565878 723227410 1090535442 1430869784 184689272
            51397184 287310552 1195835322</internalNodes>
          <leafValues>
            -6.4206928014755249e-01 3.6004275083541870e-01</leafValues></_></weakClassifiers></_>
    <!-- stage 6 -->
    <_>
      <maxWeakCount>8</maxWeakCount>
      <stageThreshold>-1.9615849256515503e+00</stageThreshold>
      <weakClassifiers>
        <_>
          <internalNodes>
            0 -1 113 -1 -9441540 1819668222 -33685505 -612370180
            -335482160 -61473026 -12582913</internalNodes>
          <leafValues>
            -5.8113819360733032e-01 6.3459461927413940e-01</leafValues></_>
        <_>
          <internalNodes>
            0 -1 14 -167321873 -139357459 34938307 -452070715 -122110993
            -275831225 -2110063921 1978530687</internalNodes>
          <leafValues>
            -5.6396287679672241e-01 3.8294854760169983e-01</leafValues></_>
        <_>
          <internalNodes>
            0 -1 42 1963598083 839332167 -913706153 -1338980693
            475138455 -788844125 793394175 -1326290565</internalNodes>
          <leafValues>
            -7.0317375659942627e-01 2.9682299494743347e-01</leafValues></_>
        <_>
          <internalNodes>
            0 -1 110 -276832929 522942256 -23015 1610612514 -1172595029
            -1943064929 142485227 1572536255</internalNodes>
          <leafValues>
            -4.4086146354675293e-01 5.2492058277130127e-01</leafValues></_>
        <_>
          <internalNodes>
            0 -1 32 1318249706 -360807920 1090777587 -1837231786
            -1001616662 -599782777 1219388283 1599668942</internalNodes>
          <leafValues>
            -6.9321358203887939e-01 3.1000381708145142e-01</leafValues></_>
        <_>
          <internalNodes>
            0 -1 118 -2006167825 -453979312 -217681441 -242429488
            76843263 -320827216 -858948933 214466896</internalNodes>
          <leafValues>
            -7.6382005214691162e-01 2.2279870510101318e-01</leafValues></_>
        <_>
          <internalNodes>
            0 -1 44 -841225666 1900897739 196624 185331849 1252532362
            1191379128 1112018888 170125242</internalNodes>
          <leafValues>
            -6.2467366456985474e-01 3.3170035481452942e-01</leafValues></_>
        <_>
          <internalNodes>
            0 -1 106 -549482149 189008452 948059308 1343340471
            -1694358933 -24592182 2047027391 -438351894</internalNodes>
          <leafValues>
            -5.4313886165618896e-01 3.9697375893592834e-01</leafValues></_></weakClassifiers></_>
    <!-- stage 7 -->
    <_>
      <maxWeakCount>8</maxWeakCount>
      <stageThreshold>-1.1164886951446533e+00</stageThreshold>
      <weakClassifiers>
        <_>
          <internalNodes>
            0 -1 61 -571081729 -237905153 419656063 -145370853
            -1162086182 -1531213666 -276567041 -73403425</internalNodes>
          <leafValues>
            -6.0377997159957886e-01 5.6798458099365234e-01</leafValues></_>
        <_>
          <internalNodes>
            0 -1 95 -740457797 995591320 268435464 827584978 1893727114
            9682570 275051519 2146427359</internalNodes>
          <leafValues>
            -5.5799055099487305e-01 3.7339261174201965e-01</leafValues></_>
        <_>
          <internalNodes>
            0 -1 16 -69209266 -2757834 -620674859 -218920563 -620643811
            -800871711 403888845 1969482956</internalNodes>
          <leafValues>
            -6.5309274196624756e-01 2.9253685474395752e-01</leafValues></_>
        <_>
          <internalNodes>
            0 -1 56 151650720 -682027759 21321687 1010114737 -1450500133
            -617955179 252318175 969609404</internalNodes>
          <leafValues>
            -6.9264537096023560e-01 3.2278466224670410e-01</leafValues></_>
        <_>
          <internalNodes>
            0 -1 77 -612214572 -1220308286 144495845 -1944665643
            1604787768 -20007778 772483327 781090523</internalNodes>
          <leafValues>
            -6.9548219442367554e-01 2.6344040036201477e-01</leafValues></_>
        <_>
          <internalNodes>
            0 -1 92 -91293700 -433915228 -1857777283 -1199510372
            -644113953 -41130797 -1279263813 -642039304</internalNodes>
          <leafValues>
            -5.1064670085906982e-01 3.9814725518226624e-01</leafValues></_>
        <_>
          <internalNodes>
            0 -1 81 1050941752 -1642168297 71516893 1463861645 337179999
            815693979 1644807258 -570632947</internalNodes>
          <leafValues>
            -6.6981029510498047e-01 2.8135800361633301e-01</leafValues></_>
        <_>
          <internalNodes>
            0 -1 99 1866448895 228528394 -201096978 -908463524 698497419
            -5523413 -1672812445 1553917339</internalNodes>
          <leafValues>
            -4.6550640463829041e-01 4.5361298322677612e-01</leafValues></_></weakClassifiers></_>
    <!-- stage 8 -->
    <_>
      <maxWeakCount>9</maxWeakCount>
      <stageThreshold>-1.4407887458801270e+00</stageThreshold>
      <weakClassifiers>
        <_>
          <internalNodes>
            0 -1 132 -992477765 -270118498 -1056900645 -413207298
            -891553025 -393035583 -241962497 -841482273</internalNodes>
          <leafValues>
            -6.5553867816925049e-01 3.8709676265716553e-01</leafValues></_>
        <_>
          <internalNodes>
            0 -1 127 -2098241 -397688433 -1029835779 -538988349
            -1634993409 -27603581 1363833840 -537340432</internalNodes>
          <leafValues>
            -5.2162802219390869e-01 4.2579853534698486e-01</leafValues></_>
        <_>
          <internalNodes>
            0 -1 73 -413167638 1896712746 170034 273803178 2136338190
            16818752 1359331054 2031021998</internalNodes>
          <leafValues>
            -5.7246345281600952e-01 3.4225693345069885e-01</leafValues></_>
        <_>
          <internalNodes>
            0 -1 27 -1024274734 442485586 -921672493 -464261088
            1073844232 -1375006973 1511986171 1462851319</internalNodes>
          <leafValues>
            -6.7630589008331299e-01 2.7468988299369812e-01</leafValues></_>
        <_>
          <internalNodes>
            0 -1 123 1540339898 481968160 1090601208 1199722884
            -1475604327 -1174159328 780795132 -221250561</internalNodes>
          <leafValues>
            -4.8673281073570251e-01 4.0825346112251282e-01</leafValues></_>
        <_>
          <internalNodes>
            0 -1 9 -142746257 -146587314 1461729 -113166239 1226398155
            1359168207 1192774333 -968388645</internalNodes>
          <leafValues>
            -5.5852127075195312e-01 3.6456254124641418e-01</leafValues></_>
        <_>
          <internalNodes>
            0 -1 33 -83287864 1565679698 235001116 -2116218728 437236619
            -1615519599 420255739 1590350335</internalNodes>
          <leafValues>
            -5.4656755924224854e-01 3.6494895815849304e-01</leafValues></_>
        <_>
          <internalNodes>
            0 -1 100 -804208161 1465242512 -1794895395 -444575523
            -1465349926 -347906016 -2003924741 -860944130</internalNodes>
          <leafValues>
            -4.6983897686004639e-01 4.5112386345863342e-01</leafValues></_>
        <_>
          <internalNodes>
            0 -1 133 -1222919760 1741205774 21467473 176166928
            1016783465 -1887759871 199606365 -808364235</internalNodes>
          <leafValues>
            -6.2184184789657593e-01 3.3575791120529175e-01</leafValues></_></weakClassifiers></_>
    <!-- stage 9 -->
    <_>
      <maxWeakCount>10</maxWeakCount>
      <stageThreshold>-1.7021359205245972e+00</stageThreshold>
      <weakClassifiers>
        <_>
          <internalNodes>
            0 -1 89 -1 -135169 -1125056784 -573177863 -6947910
            -1394737284 -394242 -131073</internalNodes>
          <leafValues>
            -5.7147508859634399e-01 5.9741657972335815e-01</leafValues></_>
        <_>
          <internalNodes>
            0 -1 131 -4458543 -1343553874 -16777615 -47550412 2113929211
            -805961731 -269486681 -842008581</internalNodes>
          <leafValues>
            -4.2325669527053833e-01 4.5821630954742432e-01</leafValues></_>
        <_>
          <internalNodes>
            0 -1 70 408509401 -578273188 55154773 -1621301322
            -1330070694 -68318592 1562938111 -16778561</internalNodes>
          <leafValues>
            -4.4867101311683655e-01 4.0882191061973572e-01</leafValues></_>
        <_>
          <internalNodes>
            0 -1 31 1566823679 -586092360 -2134795569 1388534677
            -221232576 1885341697 405850291 -42117989</internalNodes>
          <leafValues>
            -4.5311373472213745e-01 4.2534020543098450e-01</leafValues></_>
        <_>
          <internalNodes>
            0 -1 13 -295277667 -463047898 -1610493475 -325585084
            -96812917 -1452020785 -124559902 -899223487</internalNodes>
          <leafValues>
            -4.6560916304588318e-01 4.0884220600128174e-01</leafValues></_>
        <_>
          <internalNodes>
            0 -1 57 1893379067 794293683 1645221906 -1156081385
            316287994 51380808 1343900666 1444858330</internalNodes>
          <leafValues>
            -5.4136914014816284e-01 3.7049952149391174e-01</leafValues></_>
        <_>
          <internalNodes>
            0 -1 67 -419385944 -1123126656 62533911 1087871213
            -1551315989 -555161397 25537246 432003582</internalNodes>
          <leafValues>
            -6.1024010181427002e-01 3.3420032262802124e-01</leafValues></_>
        <_>
          <internalNodes>
            0 -1 25 -624533929 1183049634 -1928802218 303207779
            -66445224 -490078204 -689821265 -1674554913</internalNodes>
          <leafValues>
            -5.9010022878646851e-01 3.1247645616531372e-01</leafValues></_>
        <_>
          <internalNodes>
            0 -1 6 -1383533603 -331133054 -1860747051 2144983558
            -930123587 -1391753598 37837988 -797456879</internalNodes>
          <leafValues>
            -4.6322983503341675e-01 4.2614823579788208e-01</leafValues></_>
        <_>
          <internalNodes>
            0 -1 37 1871708856 601445212 -180112033 215969239 1512365873
            -335008831 852188011 1870093839</internalNodes>
          <leafValues>
            -6.4804577827453613e-01 3.2531043887138367e-01</leafValues></_></weakClassifiers></_>
    <!-- stage 10 -->
    <_>
      <maxWeakCount>10</maxWeakCount>
      <stageThreshold>-1.4069440364837646e+00</stageThreshold>
      <weakClassifiers>
        <_>
          <internalNodes>
            0 -1 82 -33556481 -570458809 2081126911 -639632641
            -1112867845 -16104785 -1450984533 -239080546</internalNodes>
          <leafValues>
            -5.9300369024276733e-01 5.4819864034652710e-01</leafValues></_>
        <_>
          <internalNodes>
            0 -1 78 -6160901 -9340942 -1241645059 -134875145 -16851201
            -272629761 -1136852993 -584337409</internalNodes>
          <leafValues>
            -3.4497803449630737e-01 5.5826973915100098e-01</leafValues></_>
        <_>
          <internalNodes>
            0 -1 1 -813961505 -286064971 -537402243 -361376445
            -269162885 -285245443 -8528121 -363364521</internalNodes>
          <leafValues>
            -3.6197224259376526e-01 4.8870262503623962e-01</leafValues></_>
        <_>
          <internalNodes>
            0 -1 53 -1803514184 -1669405574 1598147551 -1474471832
            -1425347666 -237771382 1310760761 963370986</internalNodes>
          <leafValues>
            -6.3701617717742920e-01 2.7343550324440002e-01</leafValues></_>
        <_>
          <internalNodes>
            0 -1 115 930068539 -720821816 1226629810 -104546342
            1879105931 45120 1862396472 -216540694</internalNodes>
          <leafValues>
            -4.2806631326675415e-01 4.3335947394371033e-01</leafValues></_>
        <_>
          <internalNodes>
            0 -1 35 -682825788 1495923511 -2124696205 -1933417615
            -665978671 -798793573 -707262243 -934275967</internalNodes>
          <leafValues>
            -6.0092389583587646e-01 2.8706449270248413e-01</leafValues></_>
        <_>
          <internalNodes>
            0 -1 26 -287837617 1327994352 -1073358757 -32487661 12763219
            101220364 1411462139 -4925173</internalNodes>
          <leafValues>
            -4.7696065902709961e-01 3.8041609525680542e-01</leafValues></_>
        <_>
          <internalNodes>
            0 -1 74 -631798634 -414154558 566502174 865498006 -675509860
            656935040 2139227004 1400086271</internalNodes>
          <leafValues>
            -5.8554196357727051e-01 3.1070607900619507e-01</leafValues></_>
        <_>
          <internalNodes>
            0 -1 50 -1654564391 458391947 -783224255 1127366999
            408443385 956711169 990898431 -91229813</internalNodes>
          <leafValues>
            -4.7353920340538025e-01 4.1918000578880310e-01</leafValues></_>
        <_>
          <internalNodes>
            0 -1 22 -1124135697 1164851980 2147352439 2071170432
            1870504783 -193587401 2147481525 -882168768</internalNodes>
          <leafValues>
            -4.1143351793289185e-01 4.7798570990562439e-01</leafValues></_></weakClassifiers></_>
    <!-- stage 11 -->
    <_>
      <maxWeakCount>10</maxWeakCount>
      <stageThreshold>-1.7104218006134033e+00</stageThreshold>
      <weakClassifiers>
        <_>
          <internalNodes>
            0 -1 114 -540017665 -606603782 1776281823 -771753219
            -282269201 -206578998 -305082369 -205651985</internalNodes>
          <leafValues>
            -5.8353179693222046e-01 4.8539113998413086e-01</leafValues></_>
        <_>
          <internalNodes>
            0 -1 139 -245367533 -296835425 -1538041389 -420030222
            1365305207 -807698290 -205267713 -839653194</internalNodes>
          <leafValues>
            -4.4874382019042969e-01 4.0250444412231445e-01</leafValues></_>
        <_>
          <internalNodes>
            0 -1 102 529200921 -1282146290 390018045 1044230541
            -483020295 1923293441 -1421111337 -1092744321</internalNodes>
          <leafValues>
            -4.6749702095985413e-01 3.7649124860763550e-01</leafValues></_>
        <_>
          <internalNodes>
            0 -1 104 1597745471 -41943688 201703148 761085854 991821566
            256439542 1431385855 -77613073</internalNodes>
          <leafValues>
            -3.8135042786598206e-01 4.6158584952354431e-01</leafValues></_>
        <_>
          <internalNodes>
            0 -1 66 -391922206 -1543335216 -234830669 -2091887870
            -204261221 726638827 671463653 1610826663</internalNodes>
          <leafValues>
            -6.7139655351638794e-01 3.0194443464279175e-01</leafValues></_>
        <_>
          <internalNodes>
            0 -1 125 -686452583 -1962159910 440615232 -1327498790
            256378803 1083186165 1390869947 -554783045</internalNodes>
          <leafValues>
            -5.0419145822525024e-01 3.2825648784637451e-01</leafValues></_>
        <_>
          <internalNodes>
            0 -1 138 -1947495661 -421146588 -1726089929 -967147495
            163663977 -875331109 1527571924 -820914731</internalNodes>
          <leafValues>
            -4.9137821793556213e-01 3.8155084848403931e-01</leafValues></_>
        <_>
          <internalNodes>
            0 -1 116 1085282781 970944806 -125659303 492019739 453904830
            2055280267 1854544538 -1377691044</internalNodes>
          <leafValues>
            -6.6678130626678467e-01 2.3649804294109344e-01</leafValues></_>
        <_>
          <internalNodes>
            0 -1 5 -787396806 -546615182 -1794157476 -6712422 -895405799
            -1325321727 -519061187 2047345611</internalNodes>
          <leafValues>
            -4.4825369119644165e-01 4.1038900613784790e-01</leafValues></_>
        <_>
          <internalNodes>
            0 -1 75 -1130252208 -10544820 -671084514 1569763147
            -393496838 210247170 -2003128673 522849174</internalNodes>
          <leafValues>
            -5.8775210380554199e-01 3.2045924663543701e-01</leafValues></_></weakClassifiers></_>
    <!-- stage 12 -->
    <_>
      <maxWeakCount>9</maxWeakCount>
      <stageThreshold>-1.3325031995773315e+00</stageThreshold>
      <weakClassifiers>
        <_>
          <internalNodes>
            0 -1 134 -2097217 -360721121 -577153249 -421793281
            -1616258565 -813446773 -908854881 -538971225</internalNodes>
          <leafValues>
            -6.4621752500534058e-01 3.8495904207229614e-01</leafValues></_>
        <_>
          <internalNodes>
            0 -1 101 -579806249 -1645138951 -32030377 -579755641
            -2030273926 -1920433960 -307734549 -1377850690</internalNodes>
          <leafValues>
            -4.5958524942398071e-01 3.9326348900794983e-01</leafValues></_>
        <_>
          <internalNodes>
            0 -1 103 -723539270 400210442 9752674 1884647638 586522314
            33737544 865071615 -144706578</internalNodes>
          <leafValues>
            -4.4655284285545349e-01 3.9211946725845337e-01</leafValues></_>
        <_>
          <internalNodes>
            0 -1 141 -1546488973 -1898294429 -229389377 -53586116
            154124725 2139349163 1203740893 -1936465420</internalNodes>
          <leafValues>
            -5.0770717859268188e-01 3.5226982831954956e-01</leafValues></_>
        <_>
          <internalNodes>
            0 -1 128 1935537456 -483987052 -183151568 -233246254
            343888249 1086554242 1255560106 1168111447</internalNodes>
          <leafValues>
            -6.0940623283386230e-01 3.0385571718215942e-01</leafValues></_>
        <_>
          <internalNodes>
            0 -1 23 -1030563889 -696266360 -1068608943 385372945 2146639
            -667311861 1915070299 -324929671</internalNodes>
          <leafValues>
            -5.0141322612762451e-01 3.5496267676353455e-01</leafValues></_>
        <_>
          <internalNodes>
            0 -1 71 1536743600 -652503533 -1757034747 1530747017
            312310427 -356613478 1042866111 -1631894601</internalNodes>
          <leafValues>
            -5.3156334161758423e-01 3.4601867198944092e-01</leafValues></_>
        <_>
          <internalNodes>
            0 -1 24 -1599088038 232649150 1493733533 -1454909425
            1792953154 390145098 1129765711 -1035097313</internalNodes>
          <leafValues>
            -6.4521640539169312e-01 2.7713182568550110e-01</leafValues></_>
        <_>
          <internalNodes>
            0 -1 43 146952435 -118599485 1347045747 1968754840
            -1182669633 -560297783 -2113353303 -55513968</internalNodes>
          <leafValues>
            -4.6887499094009399e-01 4.0684863924980164e-01</leafValues></_></weakClassifiers></_>
    <!-- stage 13 -->
    <_>
      <maxWeakCount>9</maxWeakCount>
      <stageThreshold>-1.4540910720825195e+00</stageThreshold>
      <weakClassifiers>
        <_>
          <internalNodes>
            0 -1 96 -134223873 -67259523 1158729740 -581577827
            -347734338 -815935048 -851385602 -10485761</internalNodes>
          <leafValues>
            -5.7104557752609253e-01 4.9606299400329590e-01</leafValues></_>
        <_>
          <internalNodes>
            0 -1 140 -112732361 -322039441 -783035873 -295380258
            -674475145 -913325939 2106325333 -927403851</internalNodes>
          <leafValues>
            -5.5169880390167236e-01 3.1586956977844238e-01</leafValues></_>
        <_>
          <internalNodes>
            0 -1 129 -1210125355 -1118140 1477165279 1360056440
            -1110706689 -1450647551 995806193 -869314563</internalNodes>
          <leafValues>
            -4.3460828065872192e-01 3.9422035217285156e-01</leafValues></_>
        <_>
          <internalNodes>
            0 -1 117 1531222011 -1617161697 -2013187755 -586152997
            -490151829 -201686749 -224734257 1606069242</internalNodes>
          <leafValues>
            -4.7863599658012390e-01 3.6655992269515991e-01</leafValues></_>
        <_>
          <internalNodes>
            0 -1 136 -1383138543 1728871174 1363497237 1365307618
            21223663 -1064859485 -1849624072 1306382497</internalNodes>
          <leafValues>
            -5.0100475549697876e-01 3.7933281064033508e-01</leafValues></_>
        <_>
          <internalNodes>
            0 -1 48 1809834235 -610823879 1141899544 857314138
            1494878922 1195459462 1633144798 2138019807</internalNodes>
          <leafValues>
            -4.7481477260589600e-01 3.6324706673622131e-01</leafValues></_>
        <_>
          <internalNodes>
            0 -1 17 -1100296126 1716718463 -1041660697 -410974964
            1242859642 1712355024 -548730482 1161813999</internalNodes>
          <leafValues>
            -7.2828364372253418e-01 2.5491049885749817e-01</leafValues></_>
        <_>
          <internalNodes>
            0 -1 79 184364607 596908072 -721372719 -1224535543 950560699
            -1634957173 399241685 145414649</internalNodes>
          <leafValues>
            -6.2210685014724731e-01 2.9019746184349060e-01</leafValues></_>
        <_>
          <internalNodes>
            0 -1 58 -97521674 1581703425 -905658371 954093950 838895891
            -542702589 151197775 1366696958</internalNodes>
          <leafValues>
            -5.5142474174499512e-01 3.4680894017219543e-01</leafValues></_></weakClassifiers></_>
    <!-- stage 14 -->
    <_>
      <maxWeakCount>9</maxWeakCount>
      <stageThreshold>-1.0567312240600586e+00</stageThreshold>
      <weakClassifiers>
        <_>
          <internalNodes>
            0 -1 39 -614508033 -235447305 -1153423715 -45131513
            -398067457 -801383894 -624307713 -56105009</internalNodes>
          <leafValues>
            -6.2745827436447144e-01 3.7624520063400269e-01</leafValues></_>
        <_>
          <internalNodes>
            0 -1 88 -260362694 -174095459 269519504 828224476 897684152
            269097100 1361294063 -67118133</internalNodes>
          <leafValues>
            -4.5102906227111816e-01 4.1493538022041321e-01</leafValues></_>
        <_>
          <internalNodes>
            0 -1 18 -1168119069 206778626 -1286582029 -1754873449
            1379439984 724900068 1896994459 -554741129</internalNodes>
          <leafValues>
            -4.7957983613014221e-01 3.8539725542068481e-01</leafValues></_>
        <_>
          <internalNodes>
            0 -1 80 -1694314800 1625474254 -679228140 -594890440
            193112315 -829587282 -366370387 -851934725</internalNodes>
          <leafValues>
            -5.4654145240783691e-01 3.3100247383117676e-01</leafValues></_>
        <_>
          <internalNodes>
            0 -1 120 1441241451 1527065394 1074155658 1478088345
            1117336226 503908867 1107491514 -10488049</internalNodes>
          <leafValues>
            -4.2893016338348389e-01 4.4635978341102600e-01</leafValues></_>
        <_>
          <internalNodes>
            0 -1 28 2096554363 1534578558 -537955742 1526726639 -9968248
            -8972798 -284862886 -1352707506</internalNodes>
          <leafValues>
            -4.2918780446052551e-01 4.7667825222015381e-01</leafValues></_>
        <_>
          <internalNodes>
            0 -1 142 -1510349961 -1427164458 -486074029 1149288716
            942332703 -1146414901 1292048727 -838725439</internalNodes>
          <leafValues>
            -5.1924693584442139e-01 4.0017375349998474e-01</leafValues></_>
        <_>
          <internalNodes>
            0 -1 54 -282517615 -1155657040 293724429 2117464080
            135563481 -22503152 521011551 1525168245</internalNodes>
          <leafValues>
            -5.3577852249145508e-01 3.7860101461410522e-01</leafValues></_>
        <_>
          <internalNodes>
            0 -1 46 -1757263384 465443868 1669349875 -821373665
            -620389863 -1616181244 1195971995 -20993283</internalNodes>
          <leafValues>
            -5.6265622377395630e-01 3.6426323652267456e-01</leafValues></_></weakClassifiers></_>
    <!-- stage 15 -->
    <_>
      <maxWeakCount>9</maxWeakCount>
      <stageThreshold>-1.3886830806732178e+00</stageThreshold>
      <weakClassifiers>
        <_>
          <internalNodes>
            0 -1 68 -136849409 -135798381 72466449 -213528269 -883973489
            -233702829 -1593513386 -16121965</internalNodes>
          <leafValues>
            -5.7790547609329224e-01 7.0276498794555664e-01</leafValues></_>
        <_>
          <internalNodes>
            0 -1 47 -537928257 -711797879 -1744833807 -1081699977
            -1934644847 -545456103 433953651 -541077107</internalNodes>
          <leafValues>
            -3.3113396167755127e-01 7.1709829568862915e-01</leafValues></_>
        <_>
          <internalNodes>
            0 -1 3 -1022244903 1484849553 268475461 570512023 -394112528
            757129352 -616269757 -334263385</internalNodes>
          <leafValues>
            -5.0050610303878784e-01 4.3428176641464233e-01</leafValues></_>
        <_>
          <internalNodes>
            0 -1 112 2065027215 455410068 -1878933502 1344225299
            -524242230 1145184320 385915066 2048891594</internalNodes>
          <leafValues>
            -4.7152984142303467e-01 5.0212824344635010e-01</leafValues></_>
        <_>
          <internalNodes>
            0 -1 51 -349586063 1599968490 1002111077 1161421783
            -143342852 1338774652 -411238214 1879034623</internalNodes>
          <leafValues>
            -4.1955497860908508e-01 5.4245084524154663e-01</leafValues></_>
        <_>
          <internalNodes>
            0 -1 111 -1153210253 -1962720967 135249 855773328
            -2147450743 -1021837048 269030304 -909593688</internalNodes>
          <leafValues>
            -4.6713301539421082e-01 5.2360665798187256e-01</leafValues></_>
        <_>
          <internalNodes>
            0 -1 130 1575088887 1835597685 -822673673 71106542
            2130376435 1073510135 1191079927 -1918178002</internalNodes>
          <leafValues>
            -4.4984471797943115e-01 5.1689457893371582e-01</leafValues></_>
        <_>
          <internalNodes>
            0 -1 29 1795391198 -519714560 134762501 38273282 -1039067640
            403210501 16795154 1359727427</internalNodes>
          <leafValues>
            -6.0370332002639771e-01 4.2778608202934265e-01</leafValues></_>
        <_>
          <internalNodes>
            0 -1 12 -16907769 792686454 -1090853210 1848041339 -8988839
            -614531217 1962409727 -106693249</internalNodes>
          <leafValues>
            -4.6655723452568054e-01 5.7580858469009399e-01</leafValues></_></weakClassifiers></_>
    <!-- stage 16 -->
    <_>
      <maxWeakCount>6</maxWeakCount>
      <stageThreshold>-1.8303490877151489e+00</stageThreshold>
      <weakClassifiers>
        <_>
          <internalNodes>
            0 -1 64 -482356257 -775481694 16777217 -679378903
            -1862229887 -2097151892 16814400 -845823863</internalNodes>
          <leafValues>
            -6.0906517505645752e-01 8.9307409524917603e-01</leafValues></_>
        <_>
          <internalNodes>
            0 -1 36 -720293855 1543836289 33571221 1147281411 541065608
            -670908415 16777601 -243236850</internalNodes>
          <leafValues>
            -6.0152935981750488e-01 5.2507334947586060e-01</leafValues></_>
        <_>
          <internalNodes>
            0 -1 49 -295267491 1180198733 -1145567180 724771489
            -1149745976 527503188 -390526398 -29778113</internalNodes>
          <leafValues>
            -4.9250701069831848e-01 6.6302627325057983e-01</leafValues></_>
        <_>
          <internalNodes>
            0 -1 38 -1861172590 1292959752 1048578 487923713 -2008547128
            1233125514 -1844934262 1380106488</internalNodes>
          <leafValues>
            -5.7194900512695312e-01 5.5675250291824341e-01</leafValues></_>
        <_>
          <internalNodes>
            0 -1 30 1656018874 469626623 -346306622 -830939650
            1461423114 -2067827207 -951040524 -1846553345</internalNodes>
          <leafValues>
            -5.1678359508514404e-01 6.6410833597183228e-01</leafValues></_>
        <_>
          <internalNodes>
            0 -1 10 -160506827 113864300 787410625 -103523018 -112826
            -1107419777 1582580753 1752780089</internalNodes>
          <leafValues>
            -5.4065418243408203e-01 6.3630127906799316e-01</leafValues></_></weakClassifiers></_>
    <!-- stage 17 -->
    <_>
      <maxWeakCount>4</maxWeakCount>
      <stageThreshold>-1.1622660160064697e+00</stageThreshold>
      <weakClassifiers>
        <_>
          <internalNodes>
            0 -1 15 16973831 1343295513 1073758234 1359040513 2719747
            34603008 387 -221757429</internalNodes>
          <leafValues>
            -6.8721610307693481e-01 1.</leafValues></_>
        <_>
          <internalNodes>
            0 -1 93 528666643 131074 268566528 4129 458752 -1073739776
            537067520 -788463054</internalNodes>
          <leafValues>
            -5.4208028316497803e-01 8.6638504266738892e-01</leafValues></_>
        <_>
          <internalNodes>
            0 -1 52 -1031748560 -2063056895 321 25231361 -930963200
            -2139094976 35587 1174407298</internalNodes>
          <leafValues>
            -6.2900179624557495e-01 7.7313590049743652e-01</leafValues></_>
        <_>
          <internalNodes>
            0 -1 0 13457 12582913 2097217 0 -2013233019 -2012610496
            537396544 -1827453868</internalNodes>
          <leafValues>
            -7.0610558986663818e-01 7.1194320917129517e-01</leafValues></_></weakClassifiers></_>
    <!-- stage 18 -->
    <_>
      <maxWeakCount>4</maxWeakCount>
      <stageThreshold>-1.2693895101547241e+00</stageThreshold>
      <weakClassifiers>
        <_>
          <internalNodes>
            0 -1 41 1342263809 -2147467264 4096 1073938432 -2147352448
            268435456 16418 1682506722</internalNodes>
          <leafValues>
            -8.2328188419342041e-01 1.</leafValues></_>
        <_>
          <internalNodes>
            0 -1 72 17105093 1950351360 268437504 -1810824960 36864
            1073741824 2048 -2040397759</internalNodes>
          <leafValues>
            -7.1186017990112305e-01 1.</leafValues></_>
        <_>
          <internalNodes>
            0 -1 137 979894353 -2111279232 1694415923 2049822627
            125601094 106430327 -1939901228 -2078243500</internalNodes>
          <leafValues>
            -6.3324999809265137e-01 9.5522958040237427e-01</leafValues></_>
        <_>
          <internalNodes>
            0 -1 143 8388609 -2130706432 64 16777216 163860 -2147483646
            32773 -1719468032</internalNodes>
          <leafValues>
            -6.7240768671035767e-01 8.9900255203247070e-01</leafValues></_></weakClassifiers></_></stages>
  <features>
    <_>
      <rect>
        0 1 7 9</rect></_>
    <_>
      <rect>
        0 6 7 11</rect></_>
    <_>
      <rect>
        0 6 9 11</rect></_>
    <_>
      <rect>
        0 11 8 7</rect></_>
    <_>
      <rect>
        0 13 9 8</rect></_>
    <_>
      <rect>
        0 28 14 7</rect></_>
    <_>
      <rect>
        1 0 5 10</rect></_>
    <_>
      <rect>
        1 4 15 11</rect></_>
    <_>
      <rect>
        1 13 7 7</rect></_>
    <_>
      <rect>
        1 13 14 7</rect></_>
    <_>
      <rect>
        1 16 4 6</rect></_>
    <_>
      <rect>
        1 17 8 7</rect></_>
    <_>
      <rect>
        1 32 6 3</rect></_>
    <_>
      <rect>
        2 1 10 13</rect></_>
    <_>
      <rect>
        2 2 15 9</rect></_>
    <_>
      <rect>
        2 28 3 5</rect></_>
    <_>
      <rect>
        3 10 14 10</rect></_>
    <_>
      <rect>
        3 20 12 5</rect></_>
    <_>
      <rect>
        3 21 7 4</rect></_>
    <_>
      <rect>
        3 27 8 5</rect></_>
    <_>
      <rect>
        4 2 15 10</rect></_>
    <_>
      <rect>
        4 17 15 5</rect></_>
    <_>
      <rect>
        4 32 12 5</rect></_>
    <_>
      <rect>
        5 27 7 4</rect></_>
    <_>
      <rect>
        6 17 9 5</rect></_>
    <_>
      <rect>
        6 22 4 6</rect></_>
    <_>
      <rect>
        6 27 6 3</rect></_>
    <_>
      <rect>
        7 24 6 3</rect></_>
    <_>
      <rect>
        8 11 6 9</rect></_>
    <_>
      <rect>
        8 16 3 4</rect></_>
    <_>
      <rect>
        8 16 5 7</rect></_>
    <_>
      <rect>
        8 20 3 4</rect></_>
    <_>
      <rect>
        8 24 8 5</rect></_>
    <_>
      <rect>
        11 21 5 3</rect></_>
    <_>
      <rect>
        11 21 11 3</rect></_>
    <_>
      <rect>
        12 6 7 13</rect></_>
    <_>
      <rect>
        12 16 11 5</rect></_>
    <_>
      <rect>
        12 17 7 4</rect></_>
    <_>
      <rect>
        12 19 3 2</rect></_>
    <_>
      <rect>
        12 20 10 4</rect></_>
    <_>
      <rect>
        12 22 10 5</rect></_>
    <_>
      <rect>
        13 12 3 7</rect></_>
    <_>
      <rect>
        13 14 9 6</rect></_>
    <_>
      <rect>
        14 0 7 4</rect></_>
    <_>
      <rect>
        14 14 3 4</rect></_>
    <_>
      <rect>
        14 16 10 5</rect></_>
    <_>
      <rect>
        14 19 7 5</rect></_>
    <_>
      <rect>
        15 14 6 8</rect></_>
    <_>
      <rect>
        15 15 3 3</rect></_>
    <_>
      <rect>
        15 17 2 3</rect></_>
    <_>
      <rect>
        15 17 4 6</rect></_>
    <_>
      <rect>
        15 18 3 3</rect></_>
    <_>
      <rect>
        15 19 4 3</rect></_>
    <_>
      <rect>
        15 21 7 7</rect></_>
    <_>
      <rect>
        15 22 3 2</rect></_>
    <_>
      <rect>
        15 22 7 3</rect></_>
    <_>
      <rect>
        15 24 3 3</rect></_>
    <_>
      <rect>
        16 13 3 4</rect></_>
    <_>
      <rect>
        16 15 9 6</rect></_>
    <_>
      <rect>
        16 18 6 5</rect></_>
    <_>
      <rect>
        16 19 3 3</rect></_>
    <_>
      <rect>
        16 23 8 2</rect></_>
    <_>
      <rect>
        17 12 3 4</rect></_>
    <_>
      <rect>
        17 14 3 4</rect></_>
    <_>
      <rect>
        17 15 6 8</rect></_>
    <_>
      <rect>
        17 21 4 4</rect></_>
    <_>
      <rect>
        17 24 4 1</rect></_>
    <_>
      <rect>
        17 25 6 5</rect></_>
    <_>
      <rect>
        18 13 5 6</rect></_>
    <_>
      <rect>
        18 17 5 5</rect></_>
    <_>
      <rect>
        18 20 4 4</rect></_>
    <_>
      <rect>
        18 21 3 3</rect></_>
    <_>
      <rect>
        19 8 9 8</rect></_>
    <_>
      <rect>
        19 13 3 4</rect></_>
    <_>
      <rect>
        19 17 2 2</rect></_>
    <_>
      <rect>
        19 20 3 2</rect></_>
    <_>
      <rect>
        19 21 3 3</rect></_>
    <_>
      <rect>
        19 22 5 3</rect></_>
    <_>
      <rect>
        19 23 3 2</rect></_>
    <_>
      <rect>
        19 26 2 2</rect></_>
    <_>
      <rect>
        19 27 8 5</rect></_>
    <_>
      <rect>
        20 15 5 8</rect></_>
    <_>
      <rect>
        20 19 7 4</rect></_>
    <_>
      <rect>
        20 21 3 2</rect></_>
    <_>
      <rect>
        20 22 4 2</rect></_>
    <_>
      <rect>
        20 23 3 2</rect></_>
    <_>
      <rect>
        21 10 3 5</rect></_>
    <_>
      <rect>
        21 10 9 9</rect></_>
    <_>
      <rect>
        21 13 3 4</rect></_>
    <_>
      <rect>
        21 15 3 6</rect></_>
    <_>
      <rect>
        21 22 6 4</rect></_>
    <_>
      <rect>
        21 24 2 1</rect></_>
    <_>
      <rect>
        21 29 5 5</rect></_>
    <_>
      <rect>
        22 13 2 10</rect></_>
    <_>
      <rect>
        22 13 9 6</rect></_>
    <_>
      <rect>
        22 14 3 4</rect></_>
    <_>
      <rect>
        22 14 3 6</rect></_>
    <_>
      <rect>
        22 16 6 4</rect></_>
    <_>
      <rect>
        22 20 3 4</rect></_>
    <_>
      <rect>
        22 21 6 4</rect></_>
    <_>
      <rect>
        22 22 2 2</rect></_>
    <_>
      <rect>
        22 22 2 3</rect></_>
    <_>
      <rect>
        22 23 3 5</rect></_>
    <_>
      <rect>
        23 13 3 4</rect></_>
    <_>
      <rect>
        23 14 3 6</rect></_>
    <_>
      <rect>
        23 17 3 5</rect></_>
    <_>
      <rect>
        23 18 6 4</rect></_>
    <_>
      <rect>
        23 21 3 3</rect></_>
    <_>
      <rect>
        23 23 1 1</rect></_>
    <_>
      <rect>
        23 23 2 2</rect></_>
    <_>
      <rect>
        23 23 5 3</rect></_>
    <_>
      <rect>
        23 36 1 1</rect></_>
    <_>
      <rect>
        24 12 3 4</rect></_>
    <_>
      <rect>
        24 16 3 5</rect></_>
    <_>
      <rect>
        24 16 5 4</rect></_>
    <_>
      <rect>
        24 17 4 4</rect></_>
    <_>
      <rect>
        24 21 1 2</rect></_>
    <_>
      <rect>
        24 23 1 2</rect></_>
    <_>
      <rect>
        24 24 1 1</rect></_>
    <_>
      <rect>
        24 25 5 5</rect></_>
    <_>
      <rect>
        25 18 3 3</rect></_>
    <_>
      <rect>
        25 18 3 4</rect></_>
    <_>
      <rect>
        25 21 2 2</rect></_>
    <_>
      <rect>
        26 19 2 4</rect></_>
    <_>
      <rect>
        26 20 2 5</rect></_>
    <_>
      <rect>
        26 20 3 3</rect></_>
    <_>
      <rect>
        27 19 3 4</rect></_>
    <_>
      <rect>
        27 26 1 1</rect></_>
    <_>
      <rect>
        28 24 5 3</rect></_>
    <_>
      <rect>
        29 29 4 4</rect></_>
    <_>
      <rect>
        30 8 5 6</rect></_>
    <_>
      <rect>
        31 22 4 4</rect></_>
    <_>
      <rect>
        32 15 5 5</rect></_>
    <_>
      <rect>
        32 21 2 3</rect></_>
    <_>
      <rect>
        32 22 2 2</rect></_>
    <_>
      <rect>
        32 25 3 4</rect></_>
    <_>
      <rect>
        32 27 3 3</rect></_>
    <_>
      <rect>
        32 43 2 1</rect></_>
    <_>
      <rect>
        34 20 2 2</rect></_>
    <_>
      <rect>
        35 16 3 3</rect></_>
    <_>
      <rect>
        36 20 2 2</rect></_>
    <_>
      <rect>
        40 20 2 3</rect></_>
    <_>
      <rect>
        40 23 1 1</rect></_>
    <_>
      <rect>
        41 22 2 3</rect></_></features></cascade>
</opencv_storage>
