<?xml version="1.0"?>
<opencv_storage>
<cascade>
  <stageType>BOOST</stageType>
  <featureType>HAAR</featureType>
  <height>26</height>
  <width>20</width>
  <stageParams>
    <boostType>GAB</boostType>
    <minHitRate>9.9900001287460327e-01</minHitRate>
    <maxFalseAlarm>5.0000000000000000e-01</maxFalseAlarm>
    <weightTrimRate>9.4999999999999996e-01</weightTrimRate>
    <maxDepth>1</maxDepth>
    <maxWeakCount>100</maxWeakCount></stageParams>
  <featureParams>
    <maxCatCount>0</maxCatCount>
    <featSize>1</featSize>
    <mode>BASIC</mode></featureParams>
  <stageNum>23</stageNum>
  <stages>
    <!-- stage 0 -->
    <_>
      <maxWeakCount>13</maxWeakCount>
      <stageThreshold>-1.5966910123825073e+00</stageThreshold>
      <weakClassifiers>
        <_>
          <internalNodes>
            0 -1 352 1.4280350878834724e-03</internalNodes>
          <leafValues>
            -6.0430109500885010e-01 6.1650484800338745e-01</leafValues></_>
        <_>
          <internalNodes>
            0 -1 240 6.7458138801157475e-03</internalNodes>
          <leafValues>
            -6.4428532123565674e-01 3.7884008884429932e-01</leafValues></_>
        <_>
          <internalNodes>
            0 -1 119 9.0278595685958862e-02</internalNodes>
          <leafValues>
            1.7450536787509918e-01 -7.8803491592407227e-01</leafValues></_>
        <_>
          <internalNodes>
            0 -1 37 -8.9703835546970367e-03</internalNodes>
          <leafValues>
            4.4752842187881470e-01 -3.1705051660537720e-01</leafValues></_>
        <_>
          <internalNodes>
            0 -1 74 -3.9046328514814377e-02</internalNodes>
          <leafValues>
            -8.0212819576263428e-01 1.9047212600708008e-01</leafValues></_>
        <_>
          <internalNodes>
            0 -1 204 -3.2460242509841919e-02</internalNodes>
          <leafValues>
            -8.0915766954421997e-01 1.5443174540996552e-01</leafValues></_>
        <_>
          <internalNodes>
            0 -1 315 -8.5916195530444384e-04</internalNodes>
          <leafValues>
            5.7591509819030762e-01 -2.3779864609241486e-01</leafValues></_>
        <_>
          <internalNodes>
            0 -1 368 -1.9324298482388258e-03</internalNodes>
          <leafValues>
            6.7337077856063843e-01 -1.8277718126773834e-01</leafValues></_>
        <_>
          <internalNodes>
            0 -1 372 -1.5190021367743611e-03</internalNodes>
          <leafValues>
            5.1011592149734497e-01 -2.0488747954368591e-01</leafValues></_>
        <_>
          <internalNodes>
            0 -1 330 7.3530055582523346e-02</internalNodes>
          <leafValues>
            1.3453218340873718e-01 -8.2918119430541992e-01</leafValues></_>
        <_>
          <internalNodes>
            0 -1 14 3.4596659243106842e-03</internalNodes>
          <leafValues>
            -1.8871086835861206e-01 6.5772306919097900e-01</leafValues></_>
        <_>
          <internalNodes>
            0 -1 211 6.0804479289799929e-04</internalNodes>
          <leafValues>
            -1.7189306020736694e-01 5.6735378503799438e-01</leafValues></_>
        <_>
          <internalNodes>
            0 -1 160 -3.0368887819349766e-03</internalNodes>
          <leafValues>
            4.9903303384780884e-01 -2.2106550633907318e-01</leafValues></_></weakClassifiers></_>
    <!-- stage 1 -->
    <_>
      <maxWeakCount>17</maxWeakCount>
      <stageThreshold>-1.6938318014144897e+00</stageThreshold>
      <weakClassifiers>
        <_>
          <internalNodes>
            0 -1 394 7.5563671998679638e-04</internalNodes>
          <leafValues>
            -5.4205608367919922e-01 4.5657014846801758e-01</leafValues></_>
        <_>
          <internalNodes>
            0 -1 371 1.3597957789897919e-02</internalNodes>
          <leafValues>
            -5.6077259778976440e-01 3.5786116123199463e-01</leafValues></_>
        <_>
          <internalNodes>
            0 -1 536 -2.5989229325205088e-03</internalNodes>
          <leafValues>
            7.0163834095001221e-01 -1.8250165879726410e-01</leafValues></_>
        <_>
          <internalNodes>
            0 -1 20 1.3873752951622009e-01</internalNodes>
          <leafValues>
            1.0697506368160248e-01 -9.0910226106643677e-01</leafValues></_>
        <_>
          <internalNodes>
            0 -1 198 -2.9343586415052414e-02</internalNodes>
          <leafValues>
            -7.0057564973831177e-01 1.5376961231231689e-01</leafValues></_>
        <_>
          <internalNodes>
            0 -1 596 -3.6887452006340027e-03</internalNodes>
          <leafValues>
            4.9949440360069275e-01 -2.1376635134220123e-01</leafValues></_>
        <_>
          <internalNodes>
            0 -1 102 -1.3906586170196533e-01</internalNodes>
          <leafValues>
            6.5048015117645264e-01 -1.5288330614566803e-01</leafValues></_>
        <_>
          <internalNodes>
            0 -1 220 -8.4065243601799011e-02</internalNodes>
          <leafValues>
            5.4359680414199829e-01 -1.7262215912342072e-01</leafValues></_>
        <_>
          <internalNodes>
            0 -1 466 2.3654205724596977e-03</internalNodes>
          <leafValues>
            -1.9554427266120911e-01 5.7269555330276489e-01</leafValues></_>
        <_>
          <internalNodes>
            0 -1 300 -8.4897771012037992e-04</internalNodes>
          <leafValues>
            4.2323243618011475e-01 -2.2297756373882294e-01</leafValues></_>
        <_>
          <internalNodes>
            0 -1 77 1.2144855223596096e-02</internalNodes>
          <leafValues>
            1.7827033996582031e-01 -5.5527245998382568e-01</leafValues></_>
        <_>
          <internalNodes>
            0 -1 482 -6.1556529544759542e-05</internalNodes>
          <leafValues>
            -4.3294444680213928e-01 2.3005528748035431e-01</leafValues></_>
        <_>
          <internalNodes>
            0 -1 304 6.0833096504211426e-03</internalNodes>
          <leafValues>
            1.4217332005500793e-01 -7.9739522933959961e-01</leafValues></_>
        <_>
          <internalNodes>
            0 -1 159 -5.9574050828814507e-03</internalNodes>
          <leafValues>
            4.0193900465965271e-01 -2.5379043817520142e-01</leafValues></_>
        <_>
          <internalNodes>
            0 -1 41 8.0496026203036308e-04</internalNodes>
          <leafValues>
            -2.6893398165702820e-01 3.6182144284248352e-01</leafValues></_>
        <_>
          <internalNodes>
            0 -1 518 -2.0717552979476750e-04</internalNodes>
          <leafValues>
            -4.3187254667282104e-01 2.2858293354511261e-01</leafValues></_>
        <_>
          <internalNodes>
            0 -1 535 6.1451364308595657e-03</internalNodes>
          <leafValues>
            -1.5290085971355438e-01 6.1753720045089722e-01</leafValues></_></weakClassifiers></_>
    <!-- stage 2 -->
    <_>
      <maxWeakCount>18</maxWeakCount>
      <stageThreshold>-1.4802922010421753e+00</stageThreshold>
      <weakClassifiers>
        <_>
          <internalNodes>
            0 -1 357 -8.4274704568088055e-04</internalNodes>
          <leafValues>
            3.9578947424888611e-01 -5.3482586145401001e-01</leafValues></_>
        <_>
          <internalNodes>
            0 -1 67 -8.1238616257905960e-03</internalNodes>
          <leafValues>
            2.3862652480602264e-01 -5.4909944534301758e-01</leafValues></_>
        <_>
          <internalNodes>
            0 -1 83 -1.3297444675117731e-03</internalNodes>
          <leafValues>
            2.6441583037376404e-01 -3.5551267862319946e-01</leafValues></_>
        <_>
          <internalNodes>
            0 -1 43 1.8748804926872253e-02</internalNodes>
          <leafValues>
            -1.7809453606605530e-01 5.2690839767456055e-01</leafValues></_>
        <_>
          <internalNodes>
            0 -1 154 -2.9267612844705582e-02</internalNodes>
          <leafValues>
            -8.5580635070800781e-01 9.3810819089412689e-02</leafValues></_>
        <_>
          <internalNodes>
            0 -1 559 -5.8583328500390053e-03</internalNodes>
          <leafValues>
            5.2921652793884277e-01 -1.5872712433338165e-01</leafValues></_>
        <_>
          <internalNodes>
            0 -1 25 9.5946252346038818e-02</internalNodes>
          <leafValues>
            1.2774668633937836e-01 -7.1972763538360596e-01</leafValues></_>
        <_>
          <internalNodes>
            0 -1 30 -5.6035686284303665e-03</internalNodes>
          <leafValues>
            -6.0626631975173950e-01 1.4798009395599365e-01</leafValues></_>
        <_>
          <internalNodes>
            0 -1 78 -9.3478716909885406e-02</internalNodes>
          <leafValues>
            -8.6051726341247559e-01 6.0022570192813873e-02</leafValues></_>
        <_>
          <internalNodes>
            0 -1 173 5.7549425400793552e-04</internalNodes>
          <leafValues>
            -2.2264789044857025e-01 4.0929073095321655e-01</leafValues></_>
        <_>
          <internalNodes>
            0 -1 378 1.5744637697935104e-02</internalNodes>
          <leafValues>
            1.4745995402336121e-01 -7.1736502647399902e-01</leafValues></_>
        <_>
          <internalNodes>
            0 -1 412 -2.5970244314521551e-04</internalNodes>
          <leafValues>
            3.1571701169013977e-01 -2.6548907160758972e-01</leafValues></_>
        <_>
          <internalNodes>
            0 -1 385 -1.0441989870741963e-03</internalNodes>
          <leafValues>
            5.7110059261322021e-01 -1.5994697809219360e-01</leafValues></_>
        <_>
          <internalNodes>
            0 -1 163 6.9982074201107025e-02</internalNodes>
          <leafValues>
            1.3747005164623260e-01 -8.3989292383193970e-01</leafValues></_>
        <_>
          <internalNodes>
            0 -1 383 -4.2633019620552659e-04</internalNodes>
          <leafValues>
            3.5481268167495728e-01 -2.5660189986228943e-01</leafValues></_>
        <_>
          <internalNodes>
            0 -1 361 -5.5222017690539360e-03</internalNodes>
          <leafValues>
            4.3389895558357239e-01 -2.0236557722091675e-01</leafValues></_>
        <_>
          <internalNodes>
            0 -1 82 -3.7061949115013704e-05</internalNodes>
          <leafValues>
            2.5474542379379272e-01 -3.2214388251304626e-01</leafValues></_>
        <_>
          <internalNodes>
            0 -1 4 -1.7610464245080948e-02</internalNodes>
          <leafValues>
            5.2765595912933350e-01 -1.5587179362773895e-01</leafValues></_></weakClassifiers></_>
    <!-- stage 3 -->
    <_>
      <maxWeakCount>21</maxWeakCount>
      <stageThreshold>-1.3026578426361084e+00</stageThreshold>
      <weakClassifiers>
        <_>
          <internalNodes>
            0 -1 357 -3.9526843465864658e-04</internalNodes>
          <leafValues>
            2.6619964838027954e-01 -5.8496731519699097e-01</leafValues></_>
        <_>
          <internalNodes>
            0 -1 213 -3.8311472162604332e-03</internalNodes>
          <leafValues>
            3.1931874155998230e-01 -5.0178390741348267e-01</leafValues></_>
        <_>
          <internalNodes>
            0 -1 480 1.1291187547612935e-04</internalNodes>
          <leafValues>
            -3.6910641193389893e-01 2.3404231667518616e-01</leafValues></_>
        <_>
          <internalNodes>
            0 -1 235 -2.6262793689966202e-02</internalNodes>
          <leafValues>
            -7.7882587909698486e-01 1.2402406334877014e-01</leafValues></_>
        <_>
          <internalNodes>
            0 -1 393 1.5622828505001962e-04</internalNodes>
          <leafValues>
            -3.3712944388389587e-01 2.4370934069156647e-01</leafValues></_>
        <_>
          <internalNodes>
            0 -1 287 1.6479682177305222e-02</internalNodes>
          <leafValues>
            1.3033002614974976e-01 -5.2441239356994629e-01</leafValues></_>
        <_>
          <internalNodes>
            0 -1 261 -4.1393198072910309e-02</internalNodes>
          <leafValues>
            -6.3842856884002686e-01 1.6876845061779022e-01</leafValues></_>
        <_>
          <internalNodes>
            0 -1 345 5.4898450616747141e-04</internalNodes>
          <leafValues>
            -2.1788106858730316e-01 4.1426616907119751e-01</leafValues></_>
        <_>
          <internalNodes>
            0 -1 295 -1.5288989525288343e-03</internalNodes>
          <leafValues>
            4.6304944157600403e-01 -1.7075766623020172e-01</leafValues></_>
        <_>
          <internalNodes>
            0 -1 70 -8.0621957778930664e-02</internalNodes>
          <leafValues>
            -8.7414097785949707e-01 8.6664915084838867e-02</leafValues></_>
        <_>
          <internalNodes>
            0 -1 441 -5.3056125761941075e-04</internalNodes>
          <leafValues>
            4.0521830320358276e-01 -2.2051930427551270e-01</leafValues></_>
        <_>
          <internalNodes>
            0 -1 397 -3.5499878227710724e-02</internalNodes>
          <leafValues>
            -7.0308578014373779e-01 1.6261799633502960e-01</leafValues></_>
        <_>
          <internalNodes>
            0 -1 103 4.5824605040252209e-03</internalNodes>
          <leafValues>
            -1.7175450921058655e-01 5.4038333892822266e-01</leafValues></_>
        <_>
          <internalNodes>
            0 -1 86 3.6775894463062286e-02</internalNodes>
          <leafValues>
            1.3308687508106232e-01 -6.8427592515945435e-01</leafValues></_>
        <_>
          <internalNodes>
            0 -1 550 -6.8280467530712485e-05</internalNodes>
          <leafValues>
            -4.3743827939033508e-01 1.8763357400894165e-01</leafValues></_>
        <_>
          <internalNodes>
            0 -1 577 -5.9218993410468102e-03</internalNodes>
          <leafValues>
            3.8213425874710083e-01 -2.1326056122779846e-01</leafValues></_>
        <_>
          <internalNodes>
            0 -1 174 -1.3529017567634583e-02</internalNodes>
          <leafValues>
            -6.2672823667526245e-01 1.3659161329269409e-01</leafValues></_>
        <_>
          <internalNodes>
            0 -1 187 1.6255406662821770e-03</internalNodes>
          <leafValues>
            -1.2321286648511887e-01 7.1250391006469727e-01</leafValues></_>
        <_>
          <internalNodes>
            0 -1 241 -3.7348334444686770e-04</internalNodes>
          <leafValues>
            3.5936304926872253e-01 -2.0018893480300903e-01</leafValues></_>
        <_>
          <internalNodes>
            0 -1 424 6.1823758296668530e-03</internalNodes>
          <leafValues>
            -2.1749991178512573e-01 3.4992235898971558e-01</leafValues></_>
        <_>
          <internalNodes>
            0 -1 402 -7.6651662588119507e-02</internalNodes>
          <leafValues>
            6.3511180877685547e-01 -1.2764689326286316e-01</leafValues></_></weakClassifiers></_>
    <!-- stage 4 -->
    <_>
      <maxWeakCount>24</maxWeakCount>
      <stageThreshold>-1.3605057001113892e+00</stageThreshold>
      <weakClassifiers>
        <_>
          <internalNodes>
            0 -1 151 -1.4055006206035614e-02</internalNodes>
          <leafValues>
            2.3559321463108063e-01 -5.7839721441268921e-01</leafValues></_>
        <_>
          <internalNodes>
            0 -1 352 1.7301879124715924e-03</internalNodes>
          <leafValues>
            -3.8684728741645813e-01 2.6025113463401794e-01</leafValues></_>
        <_>
          <internalNodes>
            0 -1 389 9.7860619425773621e-03</internalNodes>
          <leafValues>
            1.1339187622070312e-01 -6.3603824377059937e-01</leafValues></_>
        <_>
          <internalNodes>
            0 -1 126 -2.6959456503391266e-02</internalNodes>
          <leafValues>
            -6.5362405776977539e-01 1.3426786661148071e-01</leafValues></_>
        <_>
          <internalNodes>
            0 -1 526 -1.7046120774466544e-04</internalNodes>
          <leafValues>
            -4.4077277183532715e-01 1.5611651539802551e-01</leafValues></_>
        <_>
          <internalNodes>
            0 -1 8 -5.6797564029693604e-03</internalNodes>
          <leafValues>
            5.7307189702987671e-01 -1.1817828565835953e-01</leafValues></_>
        <_>
          <internalNodes>
            0 -1 19 4.4339192099869251e-03</internalNodes>
          <leafValues>
            -2.5185030698776245e-01 2.9224908351898193e-01</leafValues></_>
        <_>
          <internalNodes>
            0 -1 142 1.0526117682456970e-01</internalNodes>
          <leafValues>
            1.1596404016017914e-01 -6.7328751087188721e-01</leafValues></_>
        <_>
          <internalNodes>
            0 -1 574 -1.7829954158514738e-03</internalNodes>
          <leafValues>
            4.5090138912200928e-01 -1.5518796443939209e-01</leafValues></_>
        <_>
          <internalNodes>
            0 -1 258 -1.0153031349182129e-01</internalNodes>
          <leafValues>
            -7.3688751459121704e-01 7.8588888049125671e-02</leafValues></_>
        <_>
          <internalNodes>
            0 -1 32 -1.3475211337208748e-02</internalNodes>
          <leafValues>
            3.2510712742805481e-01 -2.1927896142005920e-01</leafValues></_>
        <_>
          <internalNodes>
            0 -1 63 2.7104858309030533e-03</internalNodes>
          <leafValues>
            -1.5057604014873505e-01 4.7451171278953552e-01</leafValues></_>
        <_>
          <internalNodes>
            0 -1 509 -1.5332600742112845e-04</internalNodes>
          <leafValues>
            -4.2615279555320740e-01 1.9391284883022308e-01</leafValues></_>
        <_>
          <internalNodes>
            0 -1 513 2.0082020200788975e-03</internalNodes>
          <leafValues>
            1.1544486135244370e-01 -5.8774745464324951e-01</leafValues></_>
        <_>
          <internalNodes>
            0 -1 555 6.4481064327992499e-05</internalNodes>
          <leafValues>
            -3.0058288574218750e-01 2.4706366658210754e-01</leafValues></_>
        <_>
          <internalNodes>
            0 -1 274 9.4049918698146939e-04</internalNodes>
          <leafValues>
            -1.8624483048915863e-01 4.1086339950561523e-01</leafValues></_>
        <_>
          <internalNodes>
            0 -1 259 -2.1029314957559109e-03</internalNodes>
          <leafValues>
            5.5294704437255859e-01 -1.4000694453716278e-01</leafValues></_>
        <_>
          <internalNodes>
            0 -1 373 1.3378061354160309e-02</internalNodes>
          <leafValues>
            1.0799419879913330e-01 -8.4087204933166504e-01</leafValues></_>
        <_>
          <internalNodes>
            0 -1 279 -8.5052032954990864e-04</internalNodes>
          <leafValues>
            3.3299720287322998e-01 -2.0929807424545288e-01</leafValues></_>
        <_>
          <internalNodes>
            0 -1 442 -1.7525623552501202e-03</internalNodes>
          <leafValues>
            4.2173099517822266e-01 -1.4539496600627899e-01</leafValues></_>
        <_>
          <internalNodes>
            0 -1 381 1.1277580633759499e-02</internalNodes>
          <leafValues>
            1.0667853057384491e-01 -6.8516862392425537e-01</leafValues></_>
        <_>
          <internalNodes>
            0 -1 413 -3.3845857251435518e-04</internalNodes>
          <leafValues>
            2.5767430663108826e-01 -2.5811120867729187e-01</leafValues></_>
        <_>
          <internalNodes>
            0 -1 353 1.4050027821213007e-03</internalNodes>
          <leafValues>
            8.3503872156143188e-02 -8.0619293451309204e-01</leafValues></_>
        <_>
          <internalNodes>
            0 -1 333 7.1931645274162292e-02</internalNodes>
          <leafValues>
            6.5570265054702759e-02 -7.6547205448150635e-01</leafValues></_></weakClassifiers></_>
    <!-- stage 5 -->
    <_>
      <maxWeakCount>26</maxWeakCount>
      <stageThreshold>-1.3091775178909302e+00</stageThreshold>
      <weakClassifiers>
        <_>
          <internalNodes>
            0 -1 302 1.3754935935139656e-02</internalNodes>
          <leafValues>
            -4.9705880880355835e-01 2.6443204283714294e-01</leafValues></_>
        <_>
          <internalNodes>
            0 -1 351 6.9105334114283323e-04</internalNodes>
          <leafValues>
            -3.6178123950958252e-01 2.6519086956977844e-01</leafValues></_>
        <_>
          <internalNodes>
            0 -1 349 4.5458595268428326e-03</internalNodes>
          <leafValues>
            1.5845671296119690e-01 -5.9417057037353516e-01</leafValues></_>
        <_>
          <internalNodes>
            0 -1 80 8.4296640125103295e-05</internalNodes>
          <leafValues>
            2.0787742733955383e-01 -3.4535273909568787e-01</leafValues></_>
        <_>
          <internalNodes>
            0 -1 382 -1.2543949298560619e-02</internalNodes>
          <leafValues>
            -6.6639125347137451e-01 1.0950081795454025e-01</leafValues></_>
        <_>
          <internalNodes>
            0 -1 406 -4.7687971964478493e-03</internalNodes>
          <leafValues>
            2.2567304968833923e-01 -3.5226640105247498e-01</leafValues></_>
        <_>
          <internalNodes>
            0 -1 465 -2.1541008027270436e-04</internalNodes>
          <leafValues>
            2.4813084304332733e-01 -2.7200415730476379e-01</leafValues></_>
        <_>
          <internalNodes>
            0 -1 418 -3.9762174710631371e-03</internalNodes>
          <leafValues>
            8.8176733255386353e-01 -1.1881946772336960e-01</leafValues></_>
        <_>
          <internalNodes>
            0 -1 519 2.4360413663089275e-03</internalNodes>
          <leafValues>
            -1.7484335601329803e-01 3.1970185041427612e-01</leafValues></_>
        <_>
          <internalNodes>
            0 -1 167 -5.8711633086204529e-02</internalNodes>
          <leafValues>
            -6.9831478595733643e-01 8.5213311016559601e-02</leafValues></_>
        <_>
          <internalNodes>
            0 -1 178 8.2365493290126324e-04</internalNodes>
          <leafValues>
            -1.6275790333747864e-01 4.3116512894630432e-01</leafValues></_>
        <_>
          <internalNodes>
            0 -1 152 4.0652725147083402e-04</internalNodes>
          <leafValues>
            -1.9867715239524841e-01 3.4632641077041626e-01</leafValues></_>
        <_>
          <internalNodes>
            0 -1 100 -3.0715763568878174e-02</internalNodes>
          <leafValues>
            4.0503233671188354e-01 -1.2902551889419556e-01</leafValues></_>
        <_>
          <internalNodes>
            0 -1 410 -8.3579821512103081e-03</internalNodes>
          <leafValues>
            -9.1457188129425049e-01 5.2095517516136169e-02</leafValues></_>
        <_>
          <internalNodes>
            0 -1 288 -1.7749487888067961e-03</internalNodes>
          <leafValues>
            3.4606835246086121e-01 -1.8109592795372009e-01</leafValues></_>
        <_>
          <internalNodes>
            0 -1 202 -2.6741087436676025e-02</internalNodes>
          <leafValues>
            -8.0079609155654907e-01 9.2341341078281403e-02</leafValues></_>
        <_>
          <internalNodes>
            0 -1 199 2.0673801191151142e-03</internalNodes>
          <leafValues>
            -2.0857973396778107e-01 3.5442414879798889e-01</leafValues></_>
        <_>
          <internalNodes>
            0 -1 205 -7.3469604831188917e-04</internalNodes>
          <leafValues>
            4.2409774661064148e-01 -1.6716256737709045e-01</leafValues></_>
        <_>
          <internalNodes>
            0 -1 269 2.7124611660838127e-03</internalNodes>
          <leafValues>
            1.5088279545307159e-01 -4.7326746582984924e-01</leafValues></_>
        <_>
          <internalNodes>
            0 -1 514 1.0235141962766647e-03</internalNodes>
          <leafValues>
            1.2540404498577118e-01 -5.0337862968444824e-01</leafValues></_>
        <_>
          <internalNodes>
            0 -1 339 5.9929525014013052e-04</internalNodes>
          <leafValues>
            -1.6725173592567444e-01 3.8344621658325195e-01</leafValues></_>
        <_>
          <internalNodes>
            0 -1 364 -3.8790253456681967e-03</internalNodes>
          <leafValues>
            5.3650420904159546e-01 -1.1950948834419250e-01</leafValues></_>
        <_>
          <internalNodes>
            0 -1 491 6.8511986173689365e-03</internalNodes>
          <leafValues>
            -1.2080468982458115e-01 4.7842326760292053e-01</leafValues></_>
        <_>
          <internalNodes>
            0 -1 111 1.2635408202186227e-03</internalNodes>
          <leafValues>
            -1.1793677508831024e-01 4.9400416016578674e-01</leafValues></_>
        <_>
          <internalNodes>
            0 -1 309 1.8169445684179664e-03</internalNodes>
          <leafValues>
            1.3857980072498322e-01 -4.8329359292984009e-01</leafValues></_>
        <_>
          <internalNodes>
            0 -1 210 6.3861999660730362e-04</internalNodes>
          <leafValues>
            -2.0434875786304474e-01 3.1620278954505920e-01</leafValues></_></weakClassifiers></_>
    <!-- stage 6 -->
    <_>
      <maxWeakCount>32</maxWeakCount>
      <stageThreshold>-1.2928797006607056e+00</stageThreshold>
      <weakClassifiers>
        <_>
          <internalNodes>
            0 -1 141 -2.8279870748519897e-02</internalNodes>
          <leafValues>
            2.3287671804428101e-01 -4.6889224648475647e-01</leafValues></_>
        <_>
          <internalNodes>
            0 -1 399 -6.7920901346951723e-04</internalNodes>
          <leafValues>
            2.9079660773277283e-01 -3.4140121936798096e-01</leafValues></_>
        <_>
          <internalNodes>
            0 -1 232 -2.7033220976591110e-02</internalNodes>
          <leafValues>
            -7.1483802795410156e-01 1.0693633556365967e-01</leafValues></_>
        <_>
          <internalNodes>
            0 -1 26 -7.1048326790332794e-03</internalNodes>
          <leafValues>
            -6.1071324348449707e-01 1.4304381608963013e-01</leafValues></_>
        <_>
          <internalNodes>
            0 -1 123 -5.5141234042821452e-05</internalNodes>
          <leafValues>
            1.9850255548954010e-01 -3.5524603724479675e-01</leafValues></_>
        <_>
          <internalNodes>
            0 -1 122 3.7547618150711060e-02</internalNodes>
          <leafValues>
            9.4772331416606903e-02 -7.4346691370010376e-01</leafValues></_>
        <_>
          <internalNodes>
            0 -1 490 -2.0576163660734892e-04</internalNodes>
          <leafValues>
            2.7879959344863892e-01 -2.3774798214435577e-01</leafValues></_>
        <_>
          <internalNodes>
            0 -1 22 4.4841244816780090e-03</internalNodes>
          <leafValues>
            -1.8867485225200653e-01 3.9199927449226379e-01</leafValues></_>
        <_>
          <internalNodes>
            0 -1 595 -2.5109918788075447e-03</internalNodes>
          <leafValues>
            4.4359311461448669e-01 -1.0603978484869003e-01</leafValues></_>
        <_>
          <internalNodes>
            0 -1 366 -4.4984114356338978e-03</internalNodes>
          <leafValues>
            5.5215883255004883e-01 -1.2053678184747696e-01</leafValues></_>
        <_>
          <internalNodes>
            0 -1 168 1.4657274587079883e-03</internalNodes>
          <leafValues>
            -1.6812483966350555e-01 3.9976701140403748e-01</leafValues></_>
        <_>
          <internalNodes>
            0 -1 549 -2.2294207883533090e-04</internalNodes>
          <leafValues>
            -3.8883244991302490e-01 1.7762933671474457e-01</leafValues></_>
        <_>
          <internalNodes>
            0 -1 516 -2.4827482411637902e-04</internalNodes>
          <leafValues>
            -4.2710486054420471e-01 1.4507007598876953e-01</leafValues></_>
        <_>
          <internalNodes>
            0 -1 430 -8.5779670625925064e-03</internalNodes>
          <leafValues>
            3.8807150721549988e-01 -1.7673143744468689e-01</leafValues></_>
        <_>
          <internalNodes>
            0 -1 317 -1.0601607710123062e-01</internalNodes>
          <leafValues>
            3.4738931059837341e-01 -1.5767498314380646e-01</leafValues></_>
        <_>
          <internalNodes>
            0 -1 251 -2.8091128915548325e-03</internalNodes>
          <leafValues>
            4.0254566073417664e-01 -1.5688423812389374e-01</leafValues></_>
        <_>
          <internalNodes>
            0 -1 54 2.3720506578683853e-02</internalNodes>
          <leafValues>
            -1.5430913865566254e-01 4.0135669708251953e-01</leafValues></_>
        <_>
          <internalNodes>
            0 -1 144 1.7214504769071937e-03</internalNodes>
          <leafValues>
            -1.3788585364818573e-01 4.5576837658882141e-01</leafValues></_>
        <_>
          <internalNodes>
            0 -1 289 -1.2394746299833059e-03</internalNodes>
          <leafValues>
            3.6329296231269836e-01 -1.4624595642089844e-01</leafValues></_>
        <_>
          <internalNodes>
            0 -1 294 -6.3915282487869263e-02</internalNodes>
          <leafValues>
            -8.0138498544692993e-01 7.0925757288932800e-02</leafValues></_>
        <_>
          <internalNodes>
            0 -1 2 -7.9470663331449032e-04</internalNodes>
          <leafValues>
            -3.2688352465629578e-01 1.6291971504688263e-01</leafValues></_>
        <_>
          <internalNodes>
            0 -1 341 -1.7587680369615555e-02</internalNodes>
          <leafValues>
            -7.8709375858306885e-01 7.4459657073020935e-02</leafValues></_>
        <_>
          <internalNodes>
            0 -1 95 -2.4548382498323917e-03</internalNodes>
          <leafValues>
            2.3481211066246033e-01 -2.5272211432456970e-01</leafValues></_>
        <_>
          <internalNodes>
            0 -1 266 -1.9763773307204247e-03</internalNodes>
          <leafValues>
            3.7996256351470947e-01 -1.5805830061435699e-01</leafValues></_>
        <_>
          <internalNodes>
            0 -1 450 1.1507323011755943e-02</internalNodes>
          <leafValues>
            8.8537216186523438e-02 -6.8291980028152466e-01</leafValues></_>
        <_>
          <internalNodes>
            0 -1 17 -1.2657499313354492e-01</internalNodes>
          <leafValues>
            -8.3496022224426270e-01 6.2423244118690491e-02</leafValues></_>
        <_>
          <internalNodes>
            0 -1 347 -7.3657429311424494e-04</internalNodes>
          <leafValues>
            2.6270702481269836e-01 -2.2248941659927368e-01</leafValues></_>
        <_>
          <internalNodes>
            0 -1 399 -2.4838657118380070e-03</internalNodes>
          <leafValues>
            -7.0110195875167847e-01 7.5850695371627808e-02</leafValues></_>
        <_>
          <internalNodes>
            0 -1 29 6.9212757050991058e-02</internalNodes>
          <leafValues>
            6.4904406666755676e-02 -7.5415909290313721e-01</leafValues></_>
        <_>
          <internalNodes>
            0 -1 263 1.4479458332061768e-03</internalNodes>
          <leafValues>
            -1.9478891789913177e-01 3.0816707015037537e-01</leafValues></_>
        <_>
          <internalNodes>
            0 -1 598 2.2737979888916016e-03</internalNodes>
          <leafValues>
            -8.2803763449192047e-02 5.8039540052413940e-01</leafValues></_>
        <_>
          <internalNodes>
            0 -1 105 1.2004528194665909e-02</internalNodes>
          <leafValues>
            -1.0774713754653931e-01 4.7066536545753479e-01</leafValues></_></weakClassifiers></_>
    <!-- stage 7 -->
    <_>
      <maxWeakCount>34</maxWeakCount>
      <stageThreshold>-1.3503175973892212e+00</stageThreshold>
      <weakClassifiers>
        <_>
          <internalNodes>
            0 -1 354 -5.3940771613270044e-04</internalNodes>
          <leafValues>
            2.3184078931808472e-01 -3.8317757844924927e-01</leafValues></_>
        <_>
          <internalNodes>
            0 -1 290 6.8580736406147480e-03</internalNodes>
          <leafValues>
            -5.0970059633255005e-01 1.4226639270782471e-01</leafValues></_>
        <_>
          <internalNodes>
            0 -1 16 1.3976004719734192e-01</internalNodes>
          <leafValues>
            1.5265910327434540e-01 -6.1922103166580200e-01</leafValues></_>
        <_>
          <internalNodes>
            0 -1 567 -8.9284221758134663e-05</internalNodes>
          <leafValues>
            -3.7527400255203247e-01 1.6883754730224609e-01</leafValues></_>
        <_>
          <internalNodes>
            0 -1 124 -4.8624336719512939e-02</internalNodes>
          <leafValues>
            -7.4989664554595947e-01 7.4686206877231598e-02</leafValues></_>
        <_>
          <internalNodes>
            0 -1 254 -4.2486514896154404e-02</internalNodes>
          <leafValues>
            -7.4328815937042236e-01 9.6751548349857330e-02</leafValues></_>
        <_>
          <internalNodes>
            0 -1 567 4.6159955672919750e-04</internalNodes>
          <leafValues>
            1.2736095488071442e-01 -5.1799803972244263e-01</leafValues></_>
        <_>
          <internalNodes>
            0 -1 393 4.6269063022918999e-04</internalNodes>
          <leafValues>
            -2.8328403830528259e-01 2.2282645106315613e-01</leafValues></_>
        <_>
          <internalNodes>
            0 -1 175 -1.2632938101887703e-02</internalNodes>
          <leafValues>
            -6.7145276069641113e-01 8.0479510128498077e-02</leafValues></_>
        <_>
          <internalNodes>
            0 -1 51 1.3991734012961388e-02</internalNodes>
          <leafValues>
            -1.8693254888057709e-01 3.3718976378440857e-01</leafValues></_>
        <_>
          <internalNodes>
            0 -1 596 -3.8993465714156628e-03</internalNodes>
          <leafValues>
            3.8815760612487793e-01 -1.5051238238811493e-01</leafValues></_>
        <_>
          <internalNodes>
            0 -1 554 3.2649224158376455e-04</internalNodes>
          <leafValues>
            1.3480855524539948e-01 -3.6381936073303223e-01</leafValues></_>
        <_>
          <internalNodes>
            0 -1 472 2.3845069517847151e-04</internalNodes>
          <leafValues>
            1.7503175139427185e-01 -3.1520581245422363e-01</leafValues></_>
        <_>
          <internalNodes>
            0 -1 367 -2.2062230855226517e-03</internalNodes>
          <leafValues>
            3.9032492041587830e-01 -1.2646643817424774e-01</leafValues></_>
        <_>
          <internalNodes>
            0 -1 372 -2.0411410368978977e-03</internalNodes>
          <leafValues>
            2.9301455616950989e-01 -1.8235124647617340e-01</leafValues></_>
        <_>
          <internalNodes>
            0 -1 79 1.8123813788406551e-04</internalNodes>
          <leafValues>
            1.5800616145133972e-01 -3.7955442070960999e-01</leafValues></_>
        <_>
          <internalNodes>
            0 -1 71 -2.8228724841028452e-04</internalNodes>
          <leafValues>
            -3.6179110407829285e-01 1.3909348845481873e-01</leafValues></_>
        <_>
          <internalNodes>
            0 -1 252 1.1663523316383362e-01</internalNodes>
          <leafValues>
            9.5031663775444031e-02 -5.9530764818191528e-01</leafValues></_>
        <_>
          <internalNodes>
            0 -1 93 4.6878702938556671e-02</internalNodes>
          <leafValues>
            7.6876170933246613e-02 -6.3948863744735718e-01</leafValues></_>
        <_>
          <internalNodes>
            0 -1 223 -3.4518202301114798e-03</internalNodes>
          <leafValues>
            1.9182956218719482e-01 -2.7564465999603271e-01</leafValues></_>
        <_>
          <internalNodes>
            0 -1 196 -2.8005998581647873e-02</internalNodes>
          <leafValues>
            -6.5410542488098145e-01 8.9085087180137634e-02</leafValues></_>
        <_>
          <internalNodes>
            0 -1 310 -3.2868206035345793e-03</internalNodes>
          <leafValues>
            -7.4572467803955078e-01 5.8389972895383835e-02</leafValues></_>
        <_>
          <internalNodes>
            0 -1 169 1.7048039007931948e-03</internalNodes>
          <leafValues>
            -1.6886416077613831e-01 3.8245537877082825e-01</leafValues></_>
        <_>
          <internalNodes>
            0 -1 462 5.8559780009090900e-03</internalNodes>
          <leafValues>
            8.8577575981616974e-02 -6.5010339021682739e-01</leafValues></_>
        <_>
          <internalNodes>
            0 -1 106 -8.7258173152804375e-03</internalNodes>
          <leafValues>
            3.9855185151100159e-01 -1.5263989567756653e-01</leafValues></_>
        <_>
          <internalNodes>
            0 -1 171 -7.6127791544422507e-04</internalNodes>
          <leafValues>
            2.9431405663490295e-01 -1.7502693831920624e-01</leafValues></_>
        <_>
          <internalNodes>
            0 -1 215 -6.1646890826523304e-03</internalNodes>
          <leafValues>
            -5.5583870410919189e-01 9.8893187940120697e-02</leafValues></_>
        <_>
          <internalNodes>
            0 -1 201 -1.1488301679491997e-03</internalNodes>
          <leafValues>
            3.3992829918861389e-01 -1.8023434281349182e-01</leafValues></_>
        <_>
          <internalNodes>
            0 -1 505 7.1683357236906886e-04</internalNodes>
          <leafValues>
            1.0433037579059601e-01 -5.2801752090454102e-01</leafValues></_>
        <_>
          <internalNodes>
            0 -1 60 -9.2602282762527466e-02</internalNodes>
          <leafValues>
            3.9707309007644653e-01 -1.4103436470031738e-01</leafValues></_>
        <_>
          <internalNodes>
            0 -1 539 4.6215737238526344e-03</internalNodes>
          <leafValues>
            -1.3258081674575806e-01 4.3362236022949219e-01</leafValues></_>
        <_>
          <internalNodes>
            0 -1 427 1.9667195156216621e-03</internalNodes>
          <leafValues>
            -8.6319886147975922e-02 5.6588053703308105e-01</leafValues></_>
        <_>
          <internalNodes>
            0 -1 391 -1.4374107122421265e-02</internalNodes>
          <leafValues>
            -5.2298557758331299e-01 1.1157640814781189e-01</leafValues></_>
        <_>
          <internalNodes>
            0 -1 447 9.7295176237821579e-04</internalNodes>
          <leafValues>
            -1.6813263297080994e-01 3.1841352581977844e-01</leafValues></_></weakClassifiers></_>
    <!-- stage 8 -->
    <_>
      <maxWeakCount>29</maxWeakCount>
      <stageThreshold>-1.1989322900772095e+00</stageThreshold>
      <weakClassifiers>
        <_>
          <internalNodes>
            0 -1 415 2.4810680188238621e-03</internalNodes>
          <leafValues>
            -4.3048128485679626e-01 2.6640158891677856e-01</leafValues></_>
        <_>
          <internalNodes>
            0 -1 129 -5.4465620778501034e-03</internalNodes>
          <leafValues>
            3.1853979825973511e-01 -2.1597079932689667e-01</leafValues></_>
        <_>
          <internalNodes>
            0 -1 390 -4.3496125726960599e-04</internalNodes>
          <leafValues>
            2.1758021414279938e-01 -2.8365755081176758e-01</leafValues></_>
        <_>
          <internalNodes>
            0 -1 452 3.5294513218104839e-03</internalNodes>
          <leafValues>
            -1.4260528981685638e-01 4.3070840835571289e-01</leafValues></_>
        <_>
          <internalNodes>
            0 -1 522 5.6866474915295839e-04</internalNodes>
          <leafValues>
            9.8511829972267151e-02 -5.5746555328369141e-01</leafValues></_>
        <_>
          <internalNodes>
            0 -1 39 -2.0173475146293640e-02</internalNodes>
          <leafValues>
            -6.9344407320022583e-01 1.0354257375001907e-01</leafValues></_>
        <_>
          <internalNodes>
            0 -1 59 7.4414223432540894e-02</internalNodes>
          <leafValues>
            -1.0595802962779999e-01 6.5145742893218994e-01</leafValues></_>
        <_>
          <internalNodes>
            0 -1 227 2.8948586434125900e-02</internalNodes>
          <leafValues>
            7.4743516743183136e-02 -7.8878962993621826e-01</leafValues></_>
        <_>
          <internalNodes>
            0 -1 553 -9.7722091595642269e-05</internalNodes>
          <leafValues>
            -3.6292192339897156e-01 1.4306683838367462e-01</leafValues></_>
        <_>
          <internalNodes>
            0 -1 585 1.0025640949606895e-03</internalNodes>
          <leafValues>
            -1.0595580935478210e-01 5.4264378547668457e-01</leafValues></_>
        <_>
          <internalNodes>
            0 -1 135 -4.6887444332242012e-03</internalNodes>
          <leafValues>
            -4.4486945867538452e-01 1.2440283596515656e-01</leafValues></_>
        <_>
          <internalNodes>
            0 -1 572 3.4070720430463552e-03</internalNodes>
          <leafValues>
            -1.7155039310455322e-01 3.0292841792106628e-01</leafValues></_>
        <_>
          <internalNodes>
            0 -1 571 1.2522102333605289e-03</internalNodes>
          <leafValues>
            -1.4792980253696442e-01 3.6442691087722778e-01</leafValues></_>
        <_>
          <internalNodes>
            0 -1 557 1.6057128959801048e-04</internalNodes>
          <leafValues>
            -2.6111322641372681e-01 2.0568624138832092e-01</leafValues></_>
        <_>
          <internalNodes>
            0 -1 510 -2.6457663625478745e-04</internalNodes>
          <leafValues>
            -4.0638425946235657e-01 1.4076596498489380e-01</leafValues></_>
        <_>
          <internalNodes>
            0 -1 179 -1.3500808272510767e-03</internalNodes>
          <leafValues>
            3.6318695545196533e-01 -1.5231874585151672e-01</leafValues></_>
        <_>
          <internalNodes>
            0 -1 299 4.7704653115943074e-04</internalNodes>
          <leafValues>
            -2.2742892801761627e-01 2.4227660894393921e-01</leafValues></_>
        <_>
          <internalNodes>
            0 -1 137 3.0911935493350029e-02</internalNodes>
          <leafValues>
            -1.3321425020694733e-01 3.9718812704086304e-01</leafValues></_>
        <_>
          <internalNodes>
            0 -1 517 4.4896395411342382e-04</internalNodes>
          <leafValues>
            1.3822425901889801e-01 -4.2843863368034363e-01</leafValues></_>
        <_>
          <internalNodes>
            0 -1 441 -3.7021559546701610e-04</internalNodes>
          <leafValues>
            3.2186037302017212e-01 -1.8725988268852234e-01</leafValues></_>
        <_>
          <internalNodes>
            0 -1 429 -2.4432875216007233e-02</internalNodes>
          <leafValues>
            -6.9775581359863281e-01 9.3000255525112152e-02</leafValues></_>
        <_>
          <internalNodes>
            0 -1 534 -1.5052190283313394e-03</internalNodes>
          <leafValues>
            3.9311832189559937e-01 -1.3890768587589264e-01</leafValues></_>
        <_>
          <internalNodes>
            0 -1 265 6.5568310674279928e-04</internalNodes>
          <leafValues>
            -1.4854288101196289e-01 3.5946711897850037e-01</leafValues></_>
        <_>
          <internalNodes>
            0 -1 45 1.9134376198053360e-02</internalNodes>
          <leafValues>
            -1.3376678526401520e-01 4.1367852687835693e-01</leafValues></_>
        <_>
          <internalNodes>
            0 -1 44 -4.8827254213392735e-03</internalNodes>
          <leafValues>
            3.2926112413406372e-01 -1.9528785347938538e-01</leafValues></_>
        <_>
          <internalNodes>
            0 -1 449 8.2410573959350586e-03</internalNodes>
          <leafValues>
            7.9973995685577393e-02 -6.4285427331924438e-01</leafValues></_>
        <_>
          <internalNodes>
            0 -1 570 1.5719356015324593e-03</internalNodes>
          <leafValues>
            -1.5565422177314758e-01 3.4243750572204590e-01</leafValues></_>
        <_>
          <internalNodes>
            0 -1 453 4.0945978835225105e-03</internalNodes>
          <leafValues>
            -1.3098303973674774e-01 3.9308282732963562e-01</leafValues></_>
        <_>
          <internalNodes>
            0 -1 48 -1.7481008172035217e-01</internalNodes>
          <leafValues>
            4.3020972609519958e-01 -1.3456575572490692e-01</leafValues></_></weakClassifiers></_>
    <!-- stage 9 -->
    <_>
      <maxWeakCount>31</maxWeakCount>
      <stageThreshold>-1.1944437026977539e+00</stageThreshold>
      <weakClassifiers>
        <_>
          <internalNodes>
            0 -1 72 -4.0066849440336227e-02</internalNodes>
          <leafValues>
            2.3423422873020172e-01 -4.8757764697074890e-01</leafValues></_>
        <_>
          <internalNodes>
            0 -1 399 -5.3952174494042993e-04</internalNodes>
          <leafValues>
            2.3348122835159302e-01 -3.3663088083267212e-01</leafValues></_>
        <_>
          <internalNodes>
            0 -1 515 -1.0356571874581277e-04</internalNodes>
          <leafValues>
            -4.7201445698738098e-01 1.4847582578659058e-01</leafValues></_>
        <_>
          <internalNodes>
            0 -1 146 -3.5095464438199997e-02</internalNodes>
          <leafValues>
            -6.4046061038970947e-01 1.3388803601264954e-01</leafValues></_>
        <_>
          <internalNodes>
            0 -1 15 5.0678476691246033e-03</internalNodes>
          <leafValues>
            -2.2702185809612274e-01 3.0747562646865845e-01</leafValues></_>
        <_>
          <internalNodes>
            0 -1 444 2.0295383874326944e-03</internalNodes>
          <leafValues>
            -2.5164586305618286e-01 2.2136564552783966e-01</leafValues></_>
        <_>
          <internalNodes>
            0 -1 13 -2.2551941219717264e-03</internalNodes>
          <leafValues>
            3.5551646351814270e-01 -2.0019260048866272e-01</leafValues></_>
        <_>
          <internalNodes>
            0 -1 66 1.4938145875930786e-02</internalNodes>
          <leafValues>
            2.0371885597705841e-01 -3.7389355897903442e-01</leafValues></_>
        <_>
          <internalNodes>
            0 -1 238 9.0354029089212418e-04</internalNodes>
          <leafValues>
            -2.8957438468933105e-01 1.8386891484260559e-01</leafValues></_>
        <_>
          <internalNodes>
            0 -1 598 -9.8032644018530846e-04</internalNodes>
          <leafValues>
            4.3876659870147705e-01 -1.3013538718223572e-01</leafValues></_>
        <_>
          <internalNodes>
            0 -1 545 2.7514115208759904e-04</internalNodes>
          <leafValues>
            1.5567608177661896e-01 -4.2136257886886597e-01</leafValues></_>
        <_>
          <internalNodes>
            0 -1 598 1.3850126415491104e-03</internalNodes>
          <leafValues>
            -1.5701563656330109e-01 4.4111284613609314e-01</leafValues></_>
        <_>
          <internalNodes>
            0 -1 563 2.8657922521233559e-03</internalNodes>
          <leafValues>
            -4.2427554726600647e-02 6.3459306955337524e-01</leafValues></_>
        <_>
          <internalNodes>
            0 -1 120 -1.7985564470291138e-01</internalNodes>
          <leafValues>
            -6.3440275192260742e-01 9.5165699720382690e-02</leafValues></_>
        <_>
          <internalNodes>
            0 -1 33 -2.3810980201233178e-04</internalNodes>
          <leafValues>
            -3.1952038407325745e-01 1.5278546512126923e-01</leafValues></_>
        <_>
          <internalNodes>
            0 -1 434 1.6798648983240128e-02</internalNodes>
          <leafValues>
            -8.0553025007247925e-02 7.4532735347747803e-01</leafValues></_>
        <_>
          <internalNodes>
            0 -1 492 -2.5973701849579811e-04</internalNodes>
          <leafValues>
            2.6880699396133423e-01 -1.8565617501735687e-01</leafValues></_>
        <_>
          <internalNodes>
            0 -1 114 1.5576382866129279e-03</internalNodes>
          <leafValues>
            1.8465898931026459e-01 -2.9026708006858826e-01</leafValues></_>
        <_>
          <internalNodes>
            0 -1 531 6.9095159415155649e-04</internalNodes>
          <leafValues>
            -1.6764362156391144e-01 3.6188337206840515e-01</leafValues></_>
        <_>
          <internalNodes>
            0 -1 353 1.1746396776288748e-03</internalNodes>
          <leafValues>
            7.5826622545719147e-02 -7.6181197166442871e-01</leafValues></_>
        <_>
          <internalNodes>
            0 -1 68 -2.1781483665108681e-02</internalNodes>
          <leafValues>
            -7.0291066169738770e-01 6.4466550946235657e-02</leafValues></_>
        <_>
          <internalNodes>
            0 -1 307 2.7999246958643198e-03</internalNodes>
          <leafValues>
            5.7182502001523972e-02 -7.6848334074020386e-01</leafValues></_>
        <_>
          <internalNodes>
            0 -1 214 -3.6518983542919159e-03</internalNodes>
          <leafValues>
            3.9712837338447571e-01 -1.4519846439361572e-01</leafValues></_>
        <_>
          <internalNodes>
            0 -1 64 3.1758111435920000e-03</internalNodes>
          <leafValues>
            -1.0285044461488724e-01 4.9140909314155579e-01</leafValues></_>
        <_>
          <internalNodes>
            0 -1 271 1.6669649630784988e-02</internalNodes>
          <leafValues>
            8.7914370000362396e-02 -6.2083762884140015e-01</leafValues></_>
        <_>
          <internalNodes>
            0 -1 334 -2.9568141326308250e-03</internalNodes>
          <leafValues>
            4.6131005883216858e-01 -1.1493318527936935e-01</leafValues></_>
        <_>
          <internalNodes>
            0 -1 335 2.0738127641379833e-03</internalNodes>
          <leafValues>
            -1.2854893505573273e-01 4.0345239639282227e-01</leafValues></_>
        <_>
          <internalNodes>
            0 -1 117 -3.1631790101528168e-02</internalNodes>
          <leafValues>
            -5.6763619184494019e-01 9.1439329087734222e-02</leafValues></_>
        <_>
          <internalNodes>
            0 -1 282 4.7516310587525368e-03</internalNodes>
          <leafValues>
            -1.3135617971420288e-01 3.8037508726119995e-01</leafValues></_>
        <_>
          <internalNodes>
            0 -1 426 -7.2091087698936462e-02</internalNodes>
          <leafValues>
            4.2368245124816895e-01 -1.1178781092166901e-01</leafValues></_>
        <_>
          <internalNodes>
            0 -1 173 5.4965773597359657e-04</internalNodes>
          <leafValues>
            -1.5381011366844177e-01 2.9473802447319031e-01</leafValues></_></weakClassifiers></_>
    <!-- stage 10 -->
    <_>
      <maxWeakCount>32</maxWeakCount>
      <stageThreshold>-1.2532635927200317e+00</stageThreshold>
      <weakClassifiers>
        <_>
          <internalNodes>
            0 -1 118 -1.4801418408751488e-02</internalNodes>
          <leafValues>
            1.6069941222667694e-01 -4.4665461778640747e-01</leafValues></_>
        <_>
          <internalNodes>
            0 -1 486 -1.7783694784156978e-04</internalNodes>
          <leafValues>
            -4.3531942367553711e-01 1.4890499413013458e-01</leafValues></_>
        <_>
          <internalNodes>
            0 -1 352 2.8848466463387012e-03</internalNodes>
          <leafValues>
            -2.3978468775749207e-01 3.2555288076400757e-01</leafValues></_>
        <_>
          <internalNodes>
            0 -1 529 3.8190002669580281e-05</internalNodes>
          <leafValues>
            -3.3641034364700317e-01 1.9905507564544678e-01</leafValues></_>
        <_>
          <internalNodes>
            0 -1 315 -9.3880295753479004e-04</internalNodes>
          <leafValues>
            3.3158600330352783e-01 -1.6430710256099701e-01</leafValues></_>
        <_>
          <internalNodes>
            0 -1 305 3.7698755040764809e-03</internalNodes>
          <leafValues>
            5.9398289769887924e-02 -5.7401770353317261e-01</leafValues></_>
        <_>
          <internalNodes>
            0 -1 473 2.0697149448096752e-03</internalNodes>
          <leafValues>
            1.3048885762691498e-01 -4.0637701749801636e-01</leafValues></_>
        <_>
          <internalNodes>
            0 -1 260 -2.4061672389507294e-02</internalNodes>
          <leafValues>
            -6.5721726417541504e-01 8.1733375787734985e-02</leafValues></_>
        <_>
          <internalNodes>
            0 -1 207 -8.6571641266345978e-02</internalNodes>
          <leafValues>
            -6.6297584772109985e-01 7.5357414782047272e-02</leafValues></_>
        <_>
          <internalNodes>
            0 -1 256 -9.0570803731679916e-03</internalNodes>
          <leafValues>
            2.0488737523555756e-01 -2.5777575373649597e-01</leafValues></_>
        <_>
          <internalNodes>
            0 -1 319 2.3704357445240021e-03</internalNodes>
          <leafValues>
            9.2988535761833191e-02 -5.3807538747787476e-01</leafValues></_>
        <_>
          <internalNodes>
            0 -1 59 4.5925840735435486e-02</internalNodes>
          <leafValues>
            -1.7394180595874786e-01 3.0566179752349854e-01</leafValues></_>
        <_>
          <internalNodes>
            0 -1 407 -1.6376355197280645e-03</internalNodes>
          <leafValues>
            4.5316153764724731e-01 -9.3561433255672455e-02</leafValues></_>
        <_>
          <internalNodes>
            0 -1 49 -3.0466523021459579e-03</internalNodes>
          <leafValues>
            5.4203128814697266e-01 -1.1493558436632156e-01</leafValues></_>
        <_>
          <internalNodes>
            0 -1 273 -6.7525403574109077e-04</internalNodes>
          <leafValues>
            3.2890358567237854e-01 -1.4886979758739471e-01</leafValues></_>
        <_>
          <internalNodes>
            0 -1 267 -9.0095802443102002e-04</internalNodes>
          <leafValues>
            3.7370255589485168e-01 -1.3690029084682465e-01</leafValues></_>
        <_>
          <internalNodes>
            0 -1 268 4.8008058220148087e-03</internalNodes>
          <leafValues>
            4.9569975584745407e-02 -8.5573947429656982e-01</leafValues></_>
        <_>
          <internalNodes>
            0 -1 332 4.1216327808797359e-03</internalNodes>
          <leafValues>
            -1.6911573708057404e-01 3.3069860935211182e-01</leafValues></_>
        <_>
          <internalNodes>
            0 -1 566 -1.0462102363817394e-04</internalNodes>
          <leafValues>
            -3.0624127388000488e-01 1.6320019960403442e-01</leafValues></_>
        <_>
          <internalNodes>
            0 -1 542 -8.9701190590858459e-03</internalNodes>
          <leafValues>
            5.7598662376403809e-01 -1.0750392079353333e-01</leafValues></_>
        <_>
          <internalNodes>
            0 -1 195 -4.3324653059244156e-02</internalNodes>
          <leafValues>
            -5.4337483644485474e-01 1.1410469561815262e-01</leafValues></_>
        <_>
          <internalNodes>
            0 -1 342 -2.5380187435075641e-04</internalNodes>
          <leafValues>
            2.3842000961303711e-01 -1.9834354519844055e-01</leafValues></_>
        <_>
          <internalNodes>
            0 -1 291 1.8152794800698757e-03</internalNodes>
          <leafValues>
            -1.1962531507015228e-01 3.9557200670242310e-01</leafValues></_>
        <_>
          <internalNodes>
            0 -1 324 -5.6868849787861109e-04</internalNodes>
          <leafValues>
            -5.5286860466003418e-01 9.1304525732994080e-02</leafValues></_>
        <_>
          <internalNodes>
            0 -1 284 -2.6447921991348267e-03</internalNodes>
          <leafValues>
            3.8045132160186768e-01 -1.4296847581863403e-01</leafValues></_>
        <_>
          <internalNodes>
            0 -1 551 -2.2552939481101930e-04</internalNodes>
          <leafValues>
            -3.8200241327285767e-01 1.4488288760185242e-01</leafValues></_>
        <_>
          <internalNodes>
            0 -1 561 -1.3703801669180393e-03</internalNodes>
          <leafValues>
            2.9560753703117371e-01 -1.9988897442817688e-01</leafValues></_>
        <_>
          <internalNodes>
            0 -1 162 5.5209449492394924e-03</internalNodes>
          <leafValues>
            -1.0424774885177612e-01 4.5204561948776245e-01</leafValues></_>
        <_>
          <internalNodes>
            0 -1 538 -7.4329273775219917e-04</internalNodes>
          <leafValues>
            -5.0009191036224365e-01 1.0754504054784775e-01</leafValues></_>
        <_>
          <internalNodes>
            0 -1 423 4.9045626074075699e-03</internalNodes>
          <leafValues>
            -1.0024857521057129e-01 5.6443083286285400e-01</leafValues></_>
        <_>
          <internalNodes>
            0 -1 464 -5.3833769925404340e-05</internalNodes>
          <leafValues>
            2.6281416416168213e-01 -2.2854195535182953e-01</leafValues></_>
        <_>
          <internalNodes>
            0 -1 270 9.7211562097072601e-03</internalNodes>
          <leafValues>
            7.4476487934589386e-02 -6.6508996486663818e-01</leafValues></_></weakClassifiers></_>
    <!-- stage 11 -->
    <_>
      <maxWeakCount>34</maxWeakCount>
      <stageThreshold>-1.2129186391830444e+00</stageThreshold>
      <weakClassifiers>
        <_>
          <internalNodes>
            0 -1 176 1.7312460113316774e-03</internalNodes>
          <leafValues>
            -4.6760070323944092e-01 1.8005071580410004e-01</leafValues></_>
        <_>
          <internalNodes>
            0 -1 412 -3.8977933581918478e-04</internalNodes>
          <leafValues>
            2.7716863155364990e-01 -2.4056459963321686e-01</leafValues></_>
        <_>
          <internalNodes>
            0 -1 515 -1.0952714364975691e-04</internalNodes>
          <leafValues>
            -4.5735299587249756e-01 1.3733959197998047e-01</leafValues></_>
        <_>
          <internalNodes>
            0 -1 115 1.0667981207370758e-01</internalNodes>
          <leafValues>
            1.1430928111076355e-01 -6.7265486717224121e-01</leafValues></_>
        <_>
          <internalNodes>
            0 -1 98 9.7282303613610566e-05</internalNodes>
          <leafValues>
            1.4052781462669373e-01 -3.8874104619026184e-01</leafValues></_>
        <_>
          <internalNodes>
            0 -1 355 6.4658460905775428e-04</internalNodes>
          <leafValues>
            -2.0789708197116852e-01 2.6844990253448486e-01</leafValues></_>
        <_>
          <internalNodes>
            0 -1 239 -2.4419515393674374e-03</internalNodes>
          <leafValues>
            2.3589465022087097e-01 -2.1642333269119263e-01</leafValues></_>
        <_>
          <internalNodes>
            0 -1 34 -2.6456590741872787e-02</internalNodes>
          <leafValues>
            -4.7601604461669922e-01 9.2166490852832794e-02</leafValues></_>
        <_>
          <internalNodes>
            0 -1 304 2.8711794875562191e-03</internalNodes>
          <leafValues>
            1.1155969649553299e-01 -5.0515425205230713e-01</leafValues></_>
        <_>
          <internalNodes>
            0 -1 233 -1.7648693174123764e-03</internalNodes>
          <leafValues>
            3.6531540751457214e-01 -1.3843469321727753e-01</leafValues></_>
        <_>
          <internalNodes>
            0 -1 219 -3.7613010499626398e-04</internalNodes>
          <leafValues>
            -4.4381299614906311e-01 9.2374913394451141e-02</leafValues></_>
        <_>
          <internalNodes>
            0 -1 18 -6.3504166901111603e-03</internalNodes>
          <leafValues>
            5.6507045030593872e-01 -8.0059751868247986e-02</leafValues></_>
        <_>
          <internalNodes>
            0 -1 157 -8.2333497703075409e-03</internalNodes>
          <leafValues>
            3.5080224275588989e-01 -1.6746392846107483e-01</leafValues></_>
        <_>
          <internalNodes>
            0 -1 121 -2.0347163081169128e-02</internalNodes>
          <leafValues>
            -5.8555823564529419e-01 1.1286768317222595e-01</leafValues></_>
        <_>
          <internalNodes>
            0 -1 0 1.9827742129564285e-02</internalNodes>
          <leafValues>
            -1.1450444161891937e-01 5.0424122810363770e-01</leafValues></_>
        <_>
          <internalNodes>
            0 -1 212 1.1002793908119202e-02</internalNodes>
          <leafValues>
            8.2258515059947968e-02 -6.8369591236114502e-01</leafValues></_>
        <_>
          <internalNodes>
            0 -1 340 -1.9624116830527782e-03</internalNodes>
          <leafValues>
            4.2824161052703857e-01 -1.1746353656053543e-01</leafValues></_>
        <_>
          <internalNodes>
            0 -1 99 -1.8458100385032594e-04</internalNodes>
          <leafValues>
            -2.6634591817855835e-01 1.8213014304637909e-01</leafValues></_>
        <_>
          <internalNodes>
            0 -1 230 2.5556515902280807e-03</internalNodes>
          <leafValues>
            -1.5320773422718048e-01 3.2367664575576782e-01</leafValues></_>
        <_>
          <internalNodes>
            0 -1 225 -1.9136199261993170e-03</internalNodes>
          <leafValues>
            3.2216218113899231e-01 -1.4851239323616028e-01</leafValues></_>
        <_>
          <internalNodes>
            0 -1 136 -4.3780129402875900e-02</internalNodes>
          <leafValues>
            -7.5602364540100098e-01 5.3918104618787766e-02</leafValues></_>
        <_>
          <internalNodes>
            0 -1 576 -7.1728206239640713e-03</internalNodes>
          <leafValues>
            3.2350304722785950e-01 -1.4653773605823517e-01</leafValues></_>
        <_>
          <internalNodes>
            0 -1 600 3.3611329854466021e-04</internalNodes>
          <leafValues>
            -1.3894596695899963e-01 3.4995546936988831e-01</leafValues></_>
        <_>
          <internalNodes>
            0 -1 543 1.9095191964879632e-04</internalNodes>
          <leafValues>
            1.3802465796470642e-01 -3.4221053123474121e-01</leafValues></_>
        <_>
          <internalNodes>
            0 -1 400 6.6684242337942123e-03</internalNodes>
          <leafValues>
            7.3474928736686707e-02 -6.3545846939086914e-01</leafValues></_>
        <_>
          <internalNodes>
            0 -1 336 2.8121033683419228e-03</internalNodes>
          <leafValues>
            -1.3729186356067657e-01 3.7645024061203003e-01</leafValues></_>
        <_>
          <internalNodes>
            0 -1 338 -3.4816533327102661e-02</internalNodes>
          <leafValues>
            -7.7492684125900269e-01 6.2216274440288544e-02</leafValues></_>
        <_>
          <internalNodes>
            0 -1 249 5.6372536346316338e-04</internalNodes>
          <leafValues>
            -2.1878361701965332e-01 2.1471376717090607e-01</leafValues></_>
        <_>
          <internalNodes>
            0 -1 197 -2.0965002477169037e-02</internalNodes>
          <leafValues>
            -7.4666994810104370e-01 5.8542545884847641e-02</leafValues></_>
        <_>
          <internalNodes>
            0 -1 193 -2.4477109313011169e-02</internalNodes>
          <leafValues>
            -5.9581369161605835e-01 6.1076410114765167e-02</leafValues></_>
        <_>
          <internalNodes>
            0 -1 237 3.1827506609261036e-04</internalNodes>
          <leafValues>
            -1.7457023262977600e-01 2.6494294404983521e-01</leafValues></_>
        <_>
          <internalNodes>
            0 -1 488 2.5148526765406132e-03</internalNodes>
          <leafValues>
            -1.0294688493013382e-01 4.8405137658119202e-01</leafValues></_>
        <_>
          <internalNodes>
            0 -1 506 -2.5046634254977107e-04</internalNodes>
          <leafValues>
            -3.7111154198646545e-01 1.3679260015487671e-01</leafValues></_>
        <_>
          <internalNodes>
            0 -1 460 1.1128291953355074e-03</internalNodes>
          <leafValues>
            -2.1245738863945007e-01 2.6399293541908264e-01</leafValues></_></weakClassifiers></_>
    <!-- stage 12 -->
    <_>
      <maxWeakCount>36</maxWeakCount>
      <stageThreshold>-1.2897242307662964e+00</stageThreshold>
      <weakClassifiers>
        <_>
          <internalNodes>
            0 -1 192 -2.2624131292104721e-02</internalNodes>
          <leafValues>
            2.0711110532283783e-01 -4.5627981424331665e-01</leafValues></_>
        <_>
          <internalNodes>
            0 -1 358 4.3775681406259537e-03</internalNodes>
          <leafValues>
            -2.6111128926277161e-01 2.2905287146568298e-01</leafValues></_>
        <_>
          <internalNodes>
            0 -1 581 -2.6824432425200939e-03</internalNodes>
          <leafValues>
            4.8103186488151550e-01 -1.0232307761907578e-01</leafValues></_>
        <_>
          <internalNodes>
            0 -1 96 1.8579319119453430e-02</internalNodes>
          <leafValues>
            6.5336190164089203e-02 -6.2991893291473389e-01</leafValues></_>
        <_>
          <internalNodes>
            0 -1 416 4.7341637313365936e-02</internalNodes>
          <leafValues>
            7.8336611390113831e-02 -7.0828753709793091e-01</leafValues></_>
        <_>
          <internalNodes>
            0 -1 222 6.4750672318041325e-03</internalNodes>
          <leafValues>
            -8.9975237846374512e-02 6.0599917173385620e-01</leafValues></_>
        <_>
          <internalNodes>
            0 -1 586 4.8378460633102804e-05</internalNodes>
          <leafValues>
            -2.4486209452152252e-01 2.0631812512874603e-01</leafValues></_>
        <_>
          <internalNodes>
            0 -1 247 1.6320337308570743e-03</internalNodes>
          <leafValues>
            -1.4166718721389771e-01 3.3422708511352539e-01</leafValues></_>
        <_>
          <internalNodes>
            0 -1 248 2.5196294300258160e-03</internalNodes>
          <leafValues>
            -1.3649760186672211e-01 3.8468658924102783e-01</leafValues></_>
        <_>
          <internalNodes>
            0 -1 386 2.0210770890116692e-03</internalNodes>
          <leafValues>
            -2.0812252163887024e-01 2.1780170500278473e-01</leafValues></_>
        <_>
          <internalNodes>
            0 -1 1 3.6416621878743172e-03</internalNodes>
          <leafValues>
            -1.5380856394767761e-01 2.9174840450286865e-01</leafValues></_>
        <_>
          <internalNodes>
            0 -1 475 -2.5849411031231284e-04</internalNodes>
          <leafValues>
            -4.0095856785774231e-01 1.3543581962585449e-01</leafValues></_>
        <_>
          <internalNodes>
            0 -1 569 1.5258912753779441e-04</internalNodes>
          <leafValues>
            -2.0979194343090057e-01 2.1808651089668274e-01</leafValues></_>
        <_>
          <internalNodes>
            0 -1 365 -1.9782995805144310e-03</internalNodes>
          <leafValues>
            -5.3616219758987427e-01 1.0085221379995346e-01</leafValues></_>
        <_>
          <internalNodes>
            0 -1 546 -1.4201711746864021e-04</internalNodes>
          <leafValues>
            -3.4749969840049744e-01 1.3416290283203125e-01</leafValues></_>
        <_>
          <internalNodes>
            0 -1 546 1.8468065536580980e-04</internalNodes>
          <leafValues>
            1.5120865404605865e-01 -3.4836876392364502e-01</leafValues></_>
        <_>
          <internalNodes>
            0 -1 23 -4.3387962505221367e-03</internalNodes>
          <leafValues>
            3.7040343880653381e-01 -1.4331217110157013e-01</leafValues></_>
        <_>
          <internalNodes>
            0 -1 353 -1.4899009838700294e-03</internalNodes>
          <leafValues>
            -8.0756998062133789e-01 6.0306306928396225e-02</leafValues></_>
        <_>
          <internalNodes>
            0 -1 132 4.0901033207774162e-03</internalNodes>
          <leafValues>
            -1.4839099347591400e-01 3.5657846927642822e-01</leafValues></_>
        <_>
          <internalNodes>
            0 -1 331 1.8833371577784419e-03</internalNodes>
          <leafValues>
            -1.1487780511379242e-01 3.8835370540618896e-01</leafValues></_>
        <_>
          <internalNodes>
            0 -1 508 8.5347041022032499e-04</internalNodes>
          <leafValues>
            -2.0382314920425415e-01 2.2118306159973145e-01</leafValues></_>
        <_>
          <internalNodes>
            0 -1 477 2.7194782160222530e-04</internalNodes>
          <leafValues>
            1.2734952569007874e-01 -3.5574588179588318e-01</leafValues></_>
        <_>
          <internalNodes>
            0 -1 432 -1.0423762723803520e-02</internalNodes>
          <leafValues>
            4.7631433606147766e-01 -9.9545940756797791e-02</leafValues></_>
        <_>
          <internalNodes>
            0 -1 113 -9.9684549495577812e-03</internalNodes>
          <leafValues>
            3.5338783264160156e-01 -1.1434143036603928e-01</leafValues></_>
        <_>
          <internalNodes>
            0 -1 292 -1.4611483551561832e-02</internalNodes>
          <leafValues>
            -5.6505304574966431e-01 8.1150703132152557e-02</leafValues></_>
        <_>
          <internalNodes>
            0 -1 501 -3.0944409081712365e-04</internalNodes>
          <leafValues>
            -3.1333011388778687e-01 1.5102274715900421e-01</leafValues></_>
        <_>
          <internalNodes>
            0 -1 468 -1.4881710521876812e-03</internalNodes>
          <leafValues>
            4.6928748488426208e-01 -1.0980043560266495e-01</leafValues></_>
        <_>
          <internalNodes>
            0 -1 203 -2.1993800997734070e-02</internalNodes>
          <leafValues>
            -5.5510288476943970e-01 8.8985010981559753e-02</leafValues></_>
        <_>
          <internalNodes>
            0 -1 21 -5.9263038565404713e-05</internalNodes>
          <leafValues>
            2.0819883048534393e-01 -2.1283681690692902e-01</leafValues></_>
        <_>
          <internalNodes>
            0 -1 57 -9.3323396868072450e-05</internalNodes>
          <leafValues>
            -3.0955678224563599e-01 1.4327841997146606e-01</leafValues></_>
        <_>
          <internalNodes>
            0 -1 369 1.6900943592190742e-03</internalNodes>
          <leafValues>
            -1.7030116915702820e-01 2.8970006108283997e-01</leafValues></_>
        <_>
          <internalNodes>
            0 -1 348 3.4656556090340018e-04</internalNodes>
          <leafValues>
            -2.3283883929252625e-01 1.9534915685653687e-01</leafValues></_>
        <_>
          <internalNodes>
            0 -1 89 -3.4726576996035874e-04</internalNodes>
          <leafValues>
            -3.7404549121856689e-01 1.1739020794630051e-01</leafValues></_>
        <_>
          <internalNodes>
            0 -1 81 1.8049261998385191e-03</internalNodes>
          <leafValues>
            1.0104485601186752e-01 -5.3324824571609497e-01</leafValues></_>
        <_>
          <internalNodes>
            0 -1 50 -5.2647702395915985e-03</internalNodes>
          <leafValues>
            4.2717918753623962e-01 -1.1470343917608261e-01</leafValues></_>
        <_>
          <internalNodes>
            0 -1 42 -2.4236950557678938e-03</internalNodes>
          <leafValues>
            4.1873988509178162e-01 -1.1439727991819382e-01</leafValues></_></weakClassifiers></_>
    <!-- stage 13 -->
    <_>
      <maxWeakCount>43</maxWeakCount>
      <stageThreshold>-1.3662583827972412e+00</stageThreshold>
      <weakClassifiers>
        <_>
          <internalNodes>
            0 -1 127 -2.0482677966356277e-02</internalNodes>
          <leafValues>
            1.5004055202007294e-01 -4.5873320102691650e-01</leafValues></_>
        <_>
          <internalNodes>
            0 -1 88 7.4008603405673057e-05</internalNodes>
          <leafValues>
            1.3929167389869690e-01 -3.3403366804122925e-01</leafValues></_>
        <_>
          <internalNodes>
            0 -1 88 -3.0349002918228507e-04</internalNodes>
          <leafValues>
            -2.4768713116645813e-01 2.4780386686325073e-01</leafValues></_>
        <_>
          <internalNodes>
            0 -1 354 -7.3388079181313515e-04</internalNodes>
          <leafValues>
            1.5889191627502441e-01 -2.8899717330932617e-01</leafValues></_>
        <_>
          <internalNodes>
            0 -1 484 6.4057819545269012e-03</internalNodes>
          <leafValues>
            1.8479432165622711e-01 -3.5076537728309631e-01</leafValues></_>
        <_>
          <internalNodes>
            0 -1 231 -1.5349124558269978e-02</internalNodes>
          <leafValues>
            -5.6742811203002930e-01 3.8890339434146881e-02</leafValues></_>
        <_>
          <internalNodes>
            0 -1 581 -4.7760782763361931e-03</internalNodes>
          <leafValues>
            6.5338248014450073e-01 -7.7177800238132477e-02</leafValues></_>
        <_>
          <internalNodes>
            0 -1 493 5.8409459888935089e-03</internalNodes>
          <leafValues>
            -1.2349420040845871e-01 3.9690709114074707e-01</leafValues></_>
        <_>
          <internalNodes>
            0 -1 346 -1.7707075923681259e-02</internalNodes>
          <leafValues>
            -6.1970919370651245e-01 7.6607592403888702e-02</leafValues></_>
        <_>
          <internalNodes>
            0 -1 47 1.1031432077288628e-02</internalNodes>
          <leafValues>
            -1.7438909411430359e-01 2.7697119116783142e-01</leafValues></_>
        <_>
          <internalNodes>
            0 -1 108 -9.6382699906826019e-02</internalNodes>
          <leafValues>
            -6.4582991600036621e-01 7.8483082354068756e-02</leafValues></_>
        <_>
          <internalNodes>
            0 -1 189 8.5830152034759521e-02</internalNodes>
          <leafValues>
            6.6190212965011597e-02 -5.4897189140319824e-01</leafValues></_>
        <_>
          <internalNodes>
            0 -1 562 5.1965453894808888e-04</internalNodes>
          <leafValues>
            -1.3834857940673828e-01 3.1338745355606079e-01</leafValues></_>
        <_>
          <internalNodes>
            0 -1 311 -8.3107966929674149e-04</internalNodes>
          <leafValues>
            1.8300527334213257e-01 -2.5163733959197998e-01</leafValues></_>
        <_>
          <internalNodes>
            0 -1 384 -1.3614648487418890e-03</internalNodes>
          <leafValues>
            3.3732205629348755e-01 -1.4734096825122833e-01</leafValues></_>
        <_>
          <internalNodes>
            0 -1 326 -3.2583981752395630e-02</internalNodes>
          <leafValues>
            -9.0550410747528076e-01 6.3676714897155762e-02</leafValues></_>
        <_>
          <internalNodes>
            0 -1 564 1.7527446616441011e-03</internalNodes>
          <leafValues>
            -2.1061003208160400e-01 2.2024483978748322e-01</leafValues></_>
        <_>
          <internalNodes>
            0 -1 409 -7.1426114300265908e-04</internalNodes>
          <leafValues>
            3.4645164012908936e-01 -1.3293236494064331e-01</leafValues></_>
        <_>
          <internalNodes>
            0 -1 476 1.8481467850506306e-04</internalNodes>
          <leafValues>
            1.4827923476696014e-01 -3.2761791348457336e-01</leafValues></_>
        <_>
          <internalNodes>
            0 -1 12 4.6326294541358948e-03</internalNodes>
          <leafValues>
            -8.1518158316612244e-02 6.3323259353637695e-01</leafValues></_>
        <_>
          <internalNodes>
            0 -1 186 -2.8284961357712746e-02</internalNodes>
          <leafValues>
            3.6359474062919617e-01 -1.2402468174695969e-01</leafValues></_>
        <_>
          <internalNodes>
            0 -1 471 1.4702735934406519e-03</internalNodes>
          <leafValues>
            7.5658790767192841e-02 -5.6527411937713623e-01</leafValues></_>
        <_>
          <internalNodes>
            0 -1 177 7.4970535933971405e-04</internalNodes>
          <leafValues>
            -1.6306406259536743e-01 2.7812132239341736e-01</leafValues></_>
        <_>
          <internalNodes>
            0 -1 331 -1.3585737906396389e-03</internalNodes>
          <leafValues>
            3.4406161308288574e-01 -1.2443393468856812e-01</leafValues></_>
        <_>
          <internalNodes>
            0 -1 454 -9.8680164664983749e-03</internalNodes>
          <leafValues>
            4.2211756110191345e-01 -9.4913624227046967e-02</leafValues></_>
        <_>
          <internalNodes>
            0 -1 206 -1.5804326161742210e-02</internalNodes>
          <leafValues>
            -4.7908642888069153e-01 8.6002901196479797e-02</leafValues></_>
        <_>
          <internalNodes>
            0 -1 520 4.9249926814809442e-04</internalNodes>
          <leafValues>
            1.0926176607608795e-01 -3.8664367794990540e-01</leafValues></_>
        <_>
          <internalNodes>
            0 -1 451 1.4637431013397872e-04</internalNodes>
          <leafValues>
            -1.9680394232273102e-01 2.2585287690162659e-01</leafValues></_>
        <_>
          <internalNodes>
            0 -1 551 -2.0537096133921295e-04</internalNodes>
          <leafValues>
            -3.6805945634841919e-01 1.1631421744823456e-01</leafValues></_>
        <_>
          <internalNodes>
            0 -1 253 -2.8166612610220909e-03</internalNodes>
          <leafValues>
            1.9877655804157257e-01 -2.2867211699485779e-01</leafValues></_>
        <_>
          <internalNodes>
            0 -1 431 -1.6644190996885300e-02</internalNodes>
          <leafValues>
            6.2189036607742310e-01 -7.8882865607738495e-02</leafValues></_>
        <_>
          <internalNodes>
            0 -1 297 -1.1666173115372658e-02</internalNodes>
          <leafValues>
            -7.7129274606704712e-01 7.5470872223377228e-02</leafValues></_>
        <_>
          <internalNodes>
            0 -1 573 -2.4875001981854439e-03</internalNodes>
          <leafValues>
            4.6653959155082703e-01 -1.0637739300727844e-01</leafValues></_>
        <_>
          <internalNodes>
            0 -1 525 6.8524986272677779e-04</internalNodes>
          <leafValues>
            1.0060202330350876e-01 -4.6197569370269775e-01</leafValues></_>
        <_>
          <internalNodes>
            0 -1 65 1.1204466223716736e-02</internalNodes>
          <leafValues>
            4.7448132187128067e-02 -7.7488666772842407e-01</leafValues></_>
        <_>
          <internalNodes>
            0 -1 556 1.7204170580953360e-04</internalNodes>
          <leafValues>
            -1.9016158580780029e-01 2.2649818658828735e-01</leafValues></_>
        <_>
          <internalNodes>
            0 -1 408 1.0385856730863452e-03</internalNodes>
          <leafValues>
            -2.3001424968242645e-01 2.0733918249607086e-01</leafValues></_>
        <_>
          <internalNodes>
            0 -1 3 7.7654525637626648e-02</internalNodes>
          <leafValues>
            -1.0747064650058746e-01 4.0598475933074951e-01</leafValues></_>
        <_>
          <internalNodes>
            0 -1 262 -9.9551223684102297e-04</internalNodes>
          <leafValues>
            3.0803316831588745e-01 -1.4587499201297760e-01</leafValues></_>
        <_>
          <internalNodes>
            0 -1 264 -1.4652429381385446e-03</internalNodes>
          <leafValues>
            3.2882863283157349e-01 -1.5085305273532867e-01</leafValues></_>
        <_>
          <internalNodes>
            0 -1 85 -1.0259528644382954e-02</internalNodes>
          <leafValues>
            2.2647629678249359e-01 -1.9821159541606903e-01</leafValues></_>
        <_>
          <internalNodes>
            0 -1 498 5.4835788905620575e-03</internalNodes>
          <leafValues>
            -1.5639589726924896e-01 2.8722748160362244e-01</leafValues></_>
        <_>
          <internalNodes>
            0 -1 101 -4.4473372399806976e-02</internalNodes>
          <leafValues>
            -7.0306169986724854e-01 6.6798880696296692e-02</leafValues></_></weakClassifiers></_>
    <!-- stage 14 -->
    <_>
      <maxWeakCount>38</maxWeakCount>
      <stageThreshold>-1.1787204742431641e+00</stageThreshold>
      <weakClassifiers>
        <_>
          <internalNodes>
            0 -1 244 -6.9041666574776173e-04</internalNodes>
          <leafValues>
            1.8631178140640259e-01 -3.5612535476684570e-01</leafValues></_>
        <_>
          <internalNodes>
            0 -1 524 -3.2024428946897388e-04</internalNodes>
          <leafValues>
            -4.5442754030227661e-01 1.4497007429599762e-01</leafValues></_>
        <_>
          <internalNodes>
            0 -1 396 1.2071318924427032e-03</internalNodes>
          <leafValues>
            -2.4899996817111969e-01 2.4305425584316254e-01</leafValues></_>
        <_>
          <internalNodes>
            0 -1 88 7.4790637881960720e-05</internalNodes>
          <leafValues>
            1.1548122018575668e-01 -3.7888279557228088e-01</leafValues></_>
        <_>
          <internalNodes>
            0 -1 73 -1.0798862203955650e-02</internalNodes>
          <leafValues>
            -4.8894777894020081e-01 1.3216982781887054e-01</leafValues></_>
        <_>
          <internalNodes>
            0 -1 62 -2.1904311142861843e-03</internalNodes>
          <leafValues>
            4.9625855684280396e-01 -1.2789250910282135e-01</leafValues></_>
        <_>
          <internalNodes>
            0 -1 183 1.0137218050658703e-02</internalNodes>
          <leafValues>
            7.6721780002117157e-02 -5.8085912466049194e-01</leafValues></_>
        <_>
          <internalNodes>
            0 -1 459 -8.4969878662377596e-04</internalNodes>
          <leafValues>
            2.9173141717910767e-01 -1.6623647511005402e-01</leafValues></_>
        <_>
          <internalNodes>
            0 -1 577 -5.9467488899827003e-03</internalNodes>
          <leafValues>
            3.1696978211402893e-01 -1.6800157725811005e-01</leafValues></_>
        <_>
          <internalNodes>
            0 -1 75 3.2748591154813766e-02</internalNodes>
          <leafValues>
            9.5915094017982483e-02 -5.7208424806594849e-01</leafValues></_>
        <_>
          <internalNodes>
            0 -1 248 -2.5295375380665064e-03</internalNodes>
          <leafValues>
            3.3478888869285583e-01 -1.6089172661304474e-01</leafValues></_>
        <_>
          <internalNodes>
            0 -1 575 2.2492581047117710e-03</internalNodes>
          <leafValues>
            6.7370772361755371e-02 -6.8568736314773560e-01</leafValues></_>
        <_>
          <internalNodes>
            0 -1 467 2.2405039053410292e-03</internalNodes>
          <leafValues>
            -8.7152622640132904e-02 5.6025683879852295e-01</leafValues></_>
        <_>
          <internalNodes>
            0 -1 184 -7.9689353704452515e-02</internalNodes>
          <leafValues>
            -5.0026112794876099e-01 9.6781902015209198e-02</leafValues></_>
        <_>
          <internalNodes>
            0 -1 446 -1.1295676231384277e-03</internalNodes>
          <leafValues>
            4.0180474519729614e-01 -1.2583348155021667e-01</leafValues></_>
        <_>
          <internalNodes>
            0 -1 84 -4.8392983153462410e-03</internalNodes>
          <leafValues>
            2.3272277414798737e-01 -2.0187875628471375e-01</leafValues></_>
        <_>
          <internalNodes>
            0 -1 293 -1.4417545869946480e-02</internalNodes>
          <leafValues>
            -6.1434113979339600e-01 8.1015311181545258e-02</leafValues></_>
        <_>
          <internalNodes>
            0 -1 448 4.3742761015892029e-02</internalNodes>
          <leafValues>
            5.3336270153522491e-02 -8.5524731874465942e-01</leafValues></_>
        <_>
          <internalNodes>
            0 -1 550 -6.9987610913813114e-05</internalNodes>
          <leafValues>
            -3.5406601428985596e-01 1.3211520016193390e-01</leafValues></_>
        <_>
          <internalNodes>
            0 -1 550 6.5932492725551128e-04</internalNodes>
          <leafValues>
            9.9327459931373596e-02 -5.5133295059204102e-01</leafValues></_>
        <_>
          <internalNodes>
            0 -1 463 1.5508862212300301e-02</internalNodes>
          <leafValues>
            -1.3537581264972687e-01 3.9452481269836426e-01</leafValues></_>
        <_>
          <internalNodes>
            0 -1 556 1.1964309669565409e-04</internalNodes>
          <leafValues>
            -1.9129315018653870e-01 2.6282960176467896e-01</leafValues></_>
        <_>
          <internalNodes>
            0 -1 104 -3.3538644202053547e-03</internalNodes>
          <leafValues>
            2.9984191060066223e-01 -2.1110780537128448e-01</leafValues></_>
        <_>
          <internalNodes>
            0 -1 46 3.1008433550596237e-02</internalNodes>
          <leafValues>
            -9.2641860246658325e-02 6.1770683526992798e-01</leafValues></_>
        <_>
          <internalNodes>
            0 -1 360 3.2542697153985500e-03</internalNodes>
          <leafValues>
            1.0255762934684753e-01 -5.2125948667526245e-01</leafValues></_>
        <_>
          <internalNodes>
            0 -1 61 1.9958021119236946e-02</internalNodes>
          <leafValues>
            -1.0775815695524216e-01 4.6354693174362183e-01</leafValues></_>
        <_>
          <internalNodes>
            0 -1 209 -3.1652403995394707e-03</internalNodes>
          <leafValues>
            2.5824454426765442e-01 -1.8630996346473694e-01</leafValues></_>
        <_>
          <internalNodes>
            0 -1 589 -5.0382055342197418e-03</internalNodes>
          <leafValues>
            4.3232113122940063e-01 -1.0648379474878311e-01</leafValues></_>
        <_>
          <internalNodes>
            0 -1 344 -2.7091859374195337e-04</internalNodes>
          <leafValues>
            2.3767444491386414e-01 -1.8772393465042114e-01</leafValues></_>
        <_>
          <internalNodes>
            0 -1 180 6.0481363907456398e-03</internalNodes>
          <leafValues>
            1.1075994372367859e-01 -4.5060035586357117e-01</leafValues></_>
        <_>
          <internalNodes>
            0 -1 149 1.8736970378085971e-03</internalNodes>
          <leafValues>
            -1.6117490828037262e-01 3.2525882124900818e-01</leafValues></_>
        <_>
          <internalNodes>
            0 -1 474 7.8957248479127884e-03</internalNodes>
          <leafValues>
            -1.7888408899307251e-01 2.7333229780197144e-01</leafValues></_>
        <_>
          <internalNodes>
            0 -1 528 2.5798520073294640e-04</internalNodes>
          <leafValues>
            -2.4248118698596954e-01 2.3330086469650269e-01</leafValues></_>
        <_>
          <internalNodes>
            0 -1 503 5.5026423186063766e-02</internalNodes>
          <leafValues>
            7.4311248958110809e-02 -6.2720876932144165e-01</leafValues></_>
        <_>
          <internalNodes>
            0 -1 229 -9.2558504547923803e-04</internalNodes>
          <leafValues>
            4.0139484405517578e-01 -1.2377186119556427e-01</leafValues></_>
        <_>
          <internalNodes>
            0 -1 401 1.1374986497685313e-03</internalNodes>
          <leafValues>
            8.9788600802421570e-02 -5.8162921667098999e-01</leafValues></_>
        <_>
          <internalNodes>
            0 -1 384 1.2875811662524939e-03</internalNodes>
          <leafValues>
            -1.4156290888786316e-01 3.8066121935844421e-01</leafValues></_>
        <_>
          <internalNodes>
            0 -1 112 7.5060967355966568e-03</internalNodes>
          <leafValues>
            -9.5219984650611877e-02 4.9299320578575134e-01</leafValues></_></weakClassifiers></_>
    <!-- stage 15 -->
    <_>
      <maxWeakCount>33</maxWeakCount>
      <stageThreshold>-1.2020919322967529e+00</stageThreshold>
      <weakClassifiers>
        <_>
          <internalNodes>
            0 -1 379 1.8739022314548492e-02</internalNodes>
          <leafValues>
            -4.1734418272972107e-01 2.5000000000000000e-01</leafValues></_>
        <_>
          <internalNodes>
            0 -1 90 -1.2185757514089346e-03</internalNodes>
          <leafValues>
            -3.8783314824104309e-01 1.4759115874767303e-01</leafValues></_>
        <_>
          <internalNodes>
            0 -1 283 -2.1149914711713791e-02</internalNodes>
          <leafValues>
            -6.7358231544494629e-01 7.9238109290599823e-02</leafValues></_>
        <_>
          <internalNodes>
            0 -1 590 -5.5797165259718895e-03</internalNodes>
          <leafValues>
            3.9512661099433899e-01 -1.3242129981517792e-01</leafValues></_>
        <_>
          <internalNodes>
            0 -1 482 -6.3354054873343557e-05</internalNodes>
          <leafValues>
            -3.3012914657592773e-01 1.7212347686290741e-01</leafValues></_>
        <_>
          <internalNodes>
            0 -1 277 3.0556553974747658e-03</internalNodes>
          <leafValues>
            9.3676261603832245e-02 -5.5139100551605225e-01</leafValues></_>
        <_>
          <internalNodes>
            0 -1 185 -1.9488840189296752e-04</internalNodes>
          <leafValues>
            -3.5491928458213806e-01 1.4525909721851349e-01</leafValues></_>
        <_>
          <internalNodes>
            0 -1 579 -4.4404836371541023e-03</internalNodes>
          <leafValues>
            4.3943646550178528e-01 -1.4151400327682495e-01</leafValues></_>
        <_>
          <internalNodes>
            0 -1 483 -8.2600640598684549e-04</internalNodes>
          <leafValues>
            -4.1003176569938660e-01 1.4844994246959686e-01</leafValues></_>
        <_>
          <internalNodes>
            0 -1 425 2.0093891769647598e-02</internalNodes>
          <leafValues>
            -1.5628388524055481e-01 3.3416661620140076e-01</leafValues></_>
        <_>
          <internalNodes>
            0 -1 527 1.2390618212521076e-03</internalNodes>
          <leafValues>
            -1.8854291737079620e-01 2.8693798184394836e-01</leafValues></_>
        <_>
          <internalNodes>
            0 -1 320 -1.1694808490574360e-03</internalNodes>
          <leafValues>
            -3.8266238570213318e-01 1.2823693454265594e-01</leafValues></_>
        <_>
          <internalNodes>
            0 -1 190 -5.2557505667209625e-02</internalNodes>
          <leafValues>
            -7.2037094831466675e-01 7.9508595168590546e-02</leafValues></_>
        <_>
          <internalNodes>
            0 -1 328 -4.2220782488584518e-03</internalNodes>
          <leafValues>
            2.4100014567375183e-01 -2.6123377680778503e-01</leafValues></_>
        <_>
          <internalNodes>
            0 -1 76 6.9658637046813965e-02</internalNodes>
          <leafValues>
            9.6198558807373047e-02 -5.4918104410171509e-01</leafValues></_>
        <_>
          <internalNodes>
            0 -1 55 1.4573770575225353e-02</internalNodes>
          <leafValues>
            -1.4112073183059692e-01 4.1685378551483154e-01</leafValues></_>
        <_>
          <internalNodes>
            0 -1 337 -4.3991981074213982e-03</internalNodes>
          <leafValues>
            -3.8151937723159790e-01 1.5876820683479309e-01</leafValues></_>
        <_>
          <internalNodes>
            0 -1 591 -5.3695213864557445e-05</internalNodes>
          <leafValues>
            -2.7172818779945374e-01 1.9241572916507721e-01</leafValues></_>
        <_>
          <internalNodes>
            0 -1 568 -3.7378526758402586e-03</internalNodes>
          <leafValues>
            4.6744567155838013e-01 -1.3036401569843292e-01</leafValues></_>
        <_>
          <internalNodes>
            0 -1 52 -4.2660096660256386e-03</internalNodes>
          <leafValues>
            4.3875840306282043e-01 -1.0790536552667618e-01</leafValues></_>
        <_>
          <internalNodes>
            0 -1 269 -8.0295922234654427e-03</internalNodes>
          <leafValues>
            -7.5004404783248901e-01 7.2202183306217194e-02</leafValues></_>
        <_>
          <internalNodes>
            0 -1 547 1.0911613935604692e-03</internalNodes>
          <leafValues>
            -2.6312285661697388e-01 1.9471274316310883e-01</leafValues></_>
        <_>
          <internalNodes>
            0 -1 323 1.0505462065339088e-02</internalNodes>
          <leafValues>
            -1.3129335641860962e-01 4.1393244266510010e-01</leafValues></_>
        <_>
          <internalNodes>
            0 -1 521 7.9130002995952964e-04</internalNodes>
          <leafValues>
            1.0778255015611649e-01 -4.8925253748893738e-01</leafValues></_>
        <_>
          <internalNodes>
            0 -1 558 2.5301412679255009e-03</internalNodes>
          <leafValues>
            -1.2376318871974945e-01 4.2814901471138000e-01</leafValues></_>
        <_>
          <internalNodes>
            0 -1 219 -1.4574007946066558e-04</internalNodes>
          <leafValues>
            -3.3352079987525940e-01 1.7506431043148041e-01</leafValues></_>
        <_>
          <internalNodes>
            0 -1 537 -3.1560932984575629e-04</internalNodes>
          <leafValues>
            2.9556059837341309e-01 -1.7337803542613983e-01</leafValues></_>
        <_>
          <internalNodes>
            0 -1 224 1.6381445527076721e-01</internalNodes>
          <leafValues>
            5.4436467587947845e-02 -9.5409393310546875e-01</leafValues></_>
        <_>
          <internalNodes>
            0 -1 188 -8.6635230109095573e-03</internalNodes>
          <leafValues>
            3.7905487418174744e-01 -1.4207084476947784e-01</leafValues></_>
        <_>
          <internalNodes>
            0 -1 87 5.3813163191080093e-02</internalNodes>
          <leafValues>
            7.3771789669990540e-02 -7.4815887212753296e-01</leafValues></_>
        <_>
          <internalNodes>
            0 -1 138 6.8303113803267479e-03</internalNodes>
          <leafValues>
            -1.3255064189434052e-01 4.0961545705795288e-01</leafValues></_>
        <_>
          <internalNodes>
            0 -1 405 4.5350608415901661e-03</internalNodes>
          <leafValues>
            1.1219863593578339e-01 -5.0210130214691162e-01</leafValues></_>
        <_>
          <internalNodes>
            0 -1 325 1.7009675502777100e-03</internalNodes>
          <leafValues>
            1.1113584041595459e-01 -4.5387688279151917e-01</leafValues></_></weakClassifiers></_>
    <!-- stage 16 -->
    <_>
      <maxWeakCount>34</maxWeakCount>
      <stageThreshold>-1.1648828983306885e+00</stageThreshold>
      <weakClassifiers>
        <_>
          <internalNodes>
            0 -1 140 -1.5903335064649582e-02</internalNodes>
          <leafValues>
            1.9025304913520813e-01 -3.7409025430679321e-01</leafValues></_>
        <_>
          <internalNodes>
            0 -1 312 -5.1827011629939079e-03</internalNodes>
          <leafValues>
            2.6536315679550171e-01 -2.3367324471473694e-01</leafValues></_>
        <_>
          <internalNodes>
            0 -1 31 -9.8408665508031845e-03</internalNodes>
          <leafValues>
            2.5852131843566895e-01 -1.6691006720066071e-01</leafValues></_>
        <_>
          <internalNodes>
            0 -1 478 -3.5582348937168717e-04</internalNodes>
          <leafValues>
            -3.8085031509399414e-01 1.1887270212173462e-01</leafValues></_>
        <_>
          <internalNodes>
            0 -1 414 -6.7694636527448893e-04</internalNodes>
          <leafValues>
            2.6885291934013367e-01 -1.8249233067035675e-01</leafValues></_>
        <_>
          <internalNodes>
            0 -1 417 -5.6705716997385025e-04</internalNodes>
          <leafValues>
            2.9595452547073364e-01 -1.6154941916465759e-01</leafValues></_>
        <_>
          <internalNodes>
            0 -1 40 -2.0446838811039925e-02</internalNodes>
          <leafValues>
            -8.7404924631118774e-01 7.8558348119258881e-02</leafValues></_>
        <_>
          <internalNodes>
            0 -1 533 3.5212445072829723e-03</internalNodes>
          <leafValues>
            -2.2010532021522522e-01 2.4893559515476227e-01</leafValues></_>
        <_>
          <internalNodes>
            0 -1 165 -2.0268470048904419e-02</internalNodes>
          <leafValues>
            -2.1974439918994904e-01 2.2661471366882324e-01</leafValues></_>
        <_>
          <internalNodes>
            0 -1 69 1.1458490043878555e-02</internalNodes>
          <leafValues>
            5.3909383714199066e-02 -4.5651254057884216e-01</leafValues></_>
        <_>
          <internalNodes>
            0 -1 280 -1.5305238775908947e-02</internalNodes>
          <leafValues>
            -4.3515804409980774e-01 1.1820488423109055e-01</leafValues></_>
        <_>
          <internalNodes>
            0 -1 422 3.3143814653158188e-03</internalNodes>
          <leafValues>
            5.1523845642805099e-02 -7.8141617774963379e-01</leafValues></_>
        <_>
          <internalNodes>
            0 -1 436 -3.2832659780979156e-03</internalNodes>
          <leafValues>
            4.2813247442245483e-01 -1.1953912675380707e-01</leafValues></_>
        <_>
          <internalNodes>
            0 -1 439 -1.9675837829709053e-03</internalNodes>
          <leafValues>
            4.7678333520889282e-01 -7.8085973858833313e-02</leafValues></_>
        <_>
          <internalNodes>
            0 -1 445 6.2566110864281654e-04</internalNodes>
          <leafValues>
            -1.5628375113010406e-01 2.9621794819831848e-01</leafValues></_>
        <_>
          <internalNodes>
            0 -1 532 2.1155024878680706e-03</internalNodes>
          <leafValues>
            -1.3793754577636719e-01 3.4050130844116211e-01</leafValues></_>
        <_>
          <internalNodes>
            0 -1 401 1.1395270703360438e-03</internalNodes>
          <leafValues>
            8.3396635949611664e-02 -5.7473945617675781e-01</leafValues></_>
        <_>
          <internalNodes>
            0 -1 500 -2.3696018615737557e-04</internalNodes>
          <leafValues>
            -3.4398958086967468e-01 1.1632643640041351e-01</leafValues></_>
        <_>
          <internalNodes>
            0 -1 541 1.4379101339727640e-03</internalNodes>
          <leafValues>
            -7.0786871016025543e-02 5.7313042879104614e-01</leafValues></_>
        <_>
          <internalNodes>
            0 -1 347 -1.0000527836382389e-03</internalNodes>
          <leafValues>
            2.5085350871086121e-01 -1.6951221227645874e-01</leafValues></_>
        <_>
          <internalNodes>
            0 -1 278 -9.6680112183094025e-03</internalNodes>
          <leafValues>
            -4.9345183372497559e-01 8.2475543022155762e-02</leafValues></_>
        <_>
          <internalNodes>
            0 -1 388 6.8958969786763191e-03</internalNodes>
          <leafValues>
            7.5771220028400421e-02 -6.4814579486846924e-01</leafValues></_>
        <_>
          <internalNodes>
            0 -1 134 1.2076078914105892e-02</internalNodes>
          <leafValues>
            -1.2276903539896011e-01 4.1796568036079407e-01</leafValues></_>
        <_>
          <internalNodes>
            0 -1 36 -3.0365944257937372e-04</internalNodes>
          <leafValues>
            -3.6307182908058167e-01 1.2348305433988571e-01</leafValues></_>
        <_>
          <internalNodes>
            0 -1 404 9.2525820946320891e-04</internalNodes>
          <leafValues>
            -1.1274719983339310e-01 3.8821965456008911e-01</leafValues></_>
        <_>
          <internalNodes>
            0 -1 172 6.9569807965308428e-04</internalNodes>
          <leafValues>
            -1.3575208187103271e-01 3.3742338418960571e-01</leafValues></_>
        <_>
          <internalNodes>
            0 -1 125 1.0521279647946358e-02</internalNodes>
          <leafValues>
            1.1684207618236542e-01 -3.9832231402397156e-01</leafValues></_>
        <_>
          <internalNodes>
            0 -1 153 -1.1819180799648166e-03</internalNodes>
